1202 64
6057 0.120887324 0.04712114 0.6537851 -0.3548794 0.49118382 0.36125562 0.34213033 -0.72078216 0.023925768 0.24328032 -0.19415016 -0.083659224 -0.049799133 -0.27882624 -0.13109447 0.5950036 0.4627656 -0.19287522 0.12834509 0.4302155 0.4050522 0.23773663 0.21102831 -0.057669777 -0.6719304 -0.7058381 0.03219323 0.17000315 -0.026976598 -0.13468257 -0.5424244 -0.25678897 -0.84742486 -0.0462698 0.06832022 0.30243757 0.1521563 -0.11611092 0.39196345 -0.45569974 0.02824479 0.057166062 0.55713224 0.2694136 0.36777353 -0.25761503 0.36051723 0.0341439 -0.027269669 0.13112019 -0.19888179 -0.2739273 0.24164125 -0.18088426 -0.057313744 0.3090419 0.06816459 -0.013458997 0.049539573 0.4197779 -0.032639053 0.35459733 0.024004987 -0.040615637
hsa-miR-205-5p -0.042475715 0.0137282405 0.4022592 -0.25895005 0.08639058 0.0787437 0.35642073 -0.15070751 -0.15988804 -0.10197477 0.22907265 0.034000274 0.1845794 -0.26967448 -0.13155808 0.19655664 0.18871616 -0.2605782 0.1143865 0.2883385 0.47200125 -0.045729965 0.40905803 -0.03004917 -0.57095677 -0.27598482 0.07769043 0.103053026 -0.035412323 -0.2636664 -0.20827149 -0.12505908 -0.26747996 -0.11162197 0.43493658 0.12737529 -0.13460669 -0.36257017 0.3629424 -0.20412761 -0.2861462 0.013005775 0.41725087 -0.013658325 0.014226704 -0.18188182 0.2883573 -0.0700378 -0.060481604 0.18663116 -0.10462348 0.036674447 0.3161149 0.027284522 -0.0063048983 0.29076326 0.06953163 -0.14546447 0.23145305 0.10677886 -0.015977314 0.041316517 -0.13313241 0.10038576
31703 -0.2247478 -0.1999762 -0.027851766 0.03650596 -0.04674583 0.0966827 0.18349172 0.2579581 0.16664499 0.07193011 -0.08771646 -0.36316356 0.10510393 -0.09396246 0.18887807 0.051593293 -0.004711388 -0.019349983 -0.03804088 0.22646996 0.03766732 -0.0054524955 0.08564846 -0.08082906 0.05123626 0.07318911 -0.041809876 0.32089826 0.26153943 -0.012474082 -0.13972294 0.11453928 0.005144899 -0.0079468 0.10448131 0.00082987774 -0.15464306 0.052167032 -0.0962295 0.02009796 0.031272214 -0.1563744 0.028780498 -0.070768535 0.20881765 0.07251579 0.14288592 -0.07613093 0.3336835 -0.034466255 -0.08846708 0.23218448 -0.019128326 -0.1302276 -0.3077368 0.16397767 0.011815804 0.3477454 0.37096655 0.28776097 0.04516371 0.160723 0.07374214 0.118227564
hsa-miR-23a-3p 0.054582167 -0.3526163 -0.00012510199 0.25765657 -0.095855616 -0.3499931 -0.27373734 -0.18010753 -0.38405594 -0.271601 -0.037513927 -0.27931765 -0.12742269 0.44645807 0.19204026 0.07631167 -0.020910572 -0.08523498 0.09556025 0.22530492 0.09519965 0.07115531 0.6291331 0.29246864 -0.119581476 -0.007879414 -0.34895882 0.14708506 -0.17367096 -0.07401179 -0.22230372 0.08663713 -0.3823393 -0.080930814 0.16069345 -0.048806675 -0.5125679 0.06329082 -0.04923919 0.23366883 0.1091072 0.11532707 0.008723049 0.14794825 -0.13237508 0.24984573 -0.30126417 -0.022904199 -0.02274479 0.17114402 0.13867104 0.10747087 0.13364336 0.18379714 0.08337243 -0.19928814 0.32197952 0.10528767 0.12936203 0.44321802 0.23889863 0.5013998 -0.0074391146 0.15331586
36314 -0.3258833 -0.0595519 0.15322581 0.2352471 -0.1413022 -0.074833825 -0.031440765 0.07770824 0.19268315 0.12140997 -0.08127873 -0.045192868 -0.094448514 -0.25082406 0.3279788 0.07930403 -0.028203672 -0.006315747 -0.035749037 0.10371189 0.41121936 0.2755351 0.24700192 -0.3456264 0.23619053 -0.22650218 -0.081423044 0.20636685 0.064108215 -0.12181929 -0.1020149 0.088977754 -0.31848472 -0.06939184 0.048159856 -0.022705102 -0.120831415 -0.19183213 0.1715694 -0.0065060887 0.11229168 0.08139774 0.08950383 -0.14028469 0.3537764 0.12999485 0.13323653 -0.0688867 0.4282137 -0.16059586 -0.15845157 0.2580897 -0.04371689 -0.04139355 -0.13802892 -0.02516061 0.10194643 -0.16874225 -0.03233543 -0.2601174 0.1799526 -0.06462365 0.054706555 0.1562166
hsa-miR-181c-5p -0.0078012524 -0.33500925 0.08272672 -0.2626498 0.10258268 0.06369969 -0.19018354 0.091761835 0.28097314 -0.030359825 0.04603632 0.07517666 -0.00033851745 -0.11719744 0.22612493 -0.14130476 0.2179596 0.04803302 -0.051406294 -0.0015000836 0.17273335 -0.13171208 0.15101498 -0.27978033 -0.03004358 0.04867928 0.0046106256 -0.009616359 0.15689969 -0.053815637 -0.23686829 0.0378977 -0.6033868 0.11147267 0.07946504 -0.27335364 0.0046021687 -0.045480337 -0.16015725 -0.16930111 -0.1945282 -0.18673554 0.17473887 -0.12710734 -0.025369162 0.21479276 0.2601978 0.44938266 0.22473516 -0.40103412 -0.050760556 -0.17226428 0.2902547 0.09151676 -0.2945058 0.1380991 0.0038932909 0.3567663 0.14012949 -0.049098365 0.4791322 -0.030035688 0.19123542 0.26904896
3385 -0.14641425 -0.17897663 0.33010277 0.30216852 0.0127044385 -0.24835905 0.345317 -0.037862927 -0.07219578 -0.009153567 -0.1723793 -0.20666318 -0.014970634 -0.1542844 -0.104739495 -0.12190763 -0.111077 0.025489759 -0.13054655 0.10725813 -0.11133427 0.20589599 -0.007880574 -0.15794896 -0.20561308 -0.29359275 0.020663874 0.07775764 0.025959272 0.056308206 -0.20220767 0.044076648 -0.26842648 -0.0709106 0.23159295 0.09162058 -0.10790966 0.009163458 0.036378093 0.09090799 -0.16272879 -0.3009998 -0.2127548 0.3599725 0.15153155 0.07138601 -0.015941104 0.19817182 -0.11111628 -0.076456085 -0.120972544 0.38781753 0.0375873 0.32163298 0.073647514 0.2607295 0.06726754 0.16713919 0.107987806 -0.15690516 -0.13368998 0.18183742 0.04298066 0.20839898
hsa-miR-718 -0.13775359 -0.054494265 0.1988214 0.24349628 -0.074816994 -0.19149566 0.42859787 0.08356478 0.050389305 -0.13822371 -0.18371858 -0.18997289 -0.1262513 -0.21084033 -0.022415066 -0.04963826 0.13431546 -0.107126586 -0.2345907 0.076464936 0.010285367 0.07530347 -0.025892407 -0.31577465 -0.3720072 -0.22951686 -0.005089314 0.18810725 -0.108810134 0.049285166 -0.072518595 0.18961392 -0.31008112 -0.12704211 0.13124816 0.32830372 -0.077298544 0.14457375 0.32120952 0.18619074 -0.30882797 -0.12744246 -0.025090858 0.038608328 0.0831943 -0.10096267 0.12044006 0.11962121 -0.0661736 -0.093612805 -0.16550697 0.22245009 0.024369376 0.32060415 0.14866988 0.044904657 0.09170599 0.29266298 -0.1403519 0.036120106 -0.07057815 0.3125909 0.0533693 0.18032888
hsa-miR-1262 -0.1926652 -0.27098984 0.18678652 0.33980945 0.07400531 -0.01561373 0.21244898 -0.086245395 0.055372622 -0.11951323 -0.17838828 -0.09917433 0.024958726 -0.26003808 -0.119467415 -0.12076474 -0.2626986 -0.095051646 -0.2099219 -0.076463744 -0.12583423 0.24865459 -0.04716876 0.051340345 0.011129472 -0.42343235 0.026331568 0.13783358 -0.12510271 0.09724152 -0.25547376 -0.025902748 -0.47483233 -0.02481738 0.2431788 0.2756196 -0.0049695037 0.0016534233 -0.17002213 0.027899733 -0.16809048 -0.2714422 -0.17842945 0.31351963 0.35754895 0.007841451 -0.015702188 0.27890483 -0.20588975 -0.17969154 -0.13973871 0.45252442 0.0027253488 0.61549556 0.002430441 0.2915215 0.041187517 0.21538226 0.10155381 -0.026192034 -0.115368634 0.23829573 0.18496725 0.2579328
60750 -0.23962656 -0.12916394 0.046840906 0.11125423 -0.18936846 -0.23033653 0.16511169 0.3323574 0.1299872 0.1355607 -0.14102991 -0.14277297 -0.11776493 -0.1643893 0.0916698 0.07391985 0.13889058 0.031582046 -0.20062758 -0.0048500947 -0.06998409 -0.040387265 -0.072852544 -0.11055393 -0.25218698 -0.37465975 0.1807622 0.080263264 -0.022724684 -0.053635407 -0.20893678 0.31371477 -0.017643083 0.11355844 0.16901831 0.35878038 -0.208771 0.19690171 0.33659336 0.06991603 -0.14700976 -0.12471587 0.08060355 -0.18784499 0.16196497 -0.23753816 0.27900627 0.1263508 0.02256987 0.15152176 -0.031317983 0.057392877 0.046387527 0.34792498 0.056861714 0.0444775 0.0746926 0.29478353 -0.15834942 -0.062498447 0.02298683 0.31008154 -0.14748523 0.038969055
hsa-miR-1915-3p 0.18987194 -0.53597355 0.2529952 0.5042622 0.03512982 -0.06502815 0.014920103 0.09254471 -0.10707437 0.15506378 0.07196211 0.22088541 0.26678422 0.10576987 -0.15599963 0.30939248 0.10283051 0.05543656 -0.22897692 -0.06820151 -0.02691956 -0.10273448 0.23226221 0.12174121 -0.13802911 0.031033853 -0.10470897 0.075585075 0.14119554 -0.070523806 0.053345405 0.11448361 -0.29326728 -0.20331298 -0.13023908 -0.15540692 0.045536056 0.28327113 0.059941072 -0.16873336 -0.3732524 -0.088545404 0.16481096 0.08043268 0.071965486 0.039294396 0.18238604 0.021596769 0.16880804 0.07424446 0.0928652 0.33439982 0.3873685 -0.12034765 -0.2893018 0.2200851 0.27933386 0.36212355 -0.21007392 0.0073447158 0.49518242 0.30556816 -0.28333485 0.14964204
126941 0.1072795 -0.36066788 0.17071156 -0.3357867 -0.2975234 -0.21642862 0.42828172 -0.17718759 0.020654691 0.11629783 0.18341489 -0.42774272 0.07365124 -0.18734626 -0.364642 0.09381014 -0.26905742 -0.6975858 -0.069820315 -0.028415078 0.2608732 -0.15052319 -0.068723455 -0.34256783 -0.40435547 -0.10232973 0.23058805 0.05194679 -0.20628546 0.11577708 0.056955185 -0.15620598 -0.35393053 0.019060468 0.29962322 0.027750235 -0.37504205 -0.35499543 0.4872203 0.029442083 0.033936605 0.16510148 0.65479404 -0.32864147 0.13541248 0.21595418 -0.23092732 -0.09176794 0.16145115 -0.05328046 0.117972694 -0.048850585 -0.020371327 -0.049566656 0.029021585 0.2781035 -0.1025834 0.3418872 0.24097858 -0.24254414 0.033377893 0.17547137 -0.05120144 -0.1844568
hsa-miR-140-5p 0.025037501 -0.10603254 -0.014600818 -0.07757862 -0.23000054 -0.18129353 0.37712225 -0.13228893 0.034377813 -0.19466725 0.16950335 0.060604747 -0.01835941 -0.64256054 -0.040723316 0.06505229 0.060902223 -0.4359293 -0.1672156 -0.07581591 0.04738339 0.15570574 0.32630408 0.17861833 -0.34973082 -0.1405805 0.34854403 0.021495048 -0.041127734 0.16988203 -0.2405954 0.034626737 -0.32973862 0.15701726 0.25699466 0.041040797 -0.30402374 -0.11253417 0.35493726 0.13622898 -0.26962996 -0.11119518 0.40591803 -0.3956289 0.0142890075 -0.066524655 -0.20969604 0.060979515 -0.14553037 -0.026307546 0.040999714 -0.009241115 -0.31205124 -0.035119973 0.2736264 0.2939824 -0.24717556 0.34790617 0.22914872 -0.035820663 0.42394236 -0.003270729 0.07513959 0.03938825
119307 -0.1230433 -0.23341006 0.39982834 -0.39484516 -0.16245289 -0.2961229 -0.45332274 0.19284137 0.2923658 -0.35280743 0.0037132127 -0.12662055 0.07228874 -0.0451624 0.2008214 0.0538423 0.09120445 0.14405456 -0.38700435 0.038927395 -0.1819016 0.2658482 0.045669768 -0.40710774 0.32461363 0.03507721 -0.06707554 0.26903003 -0.033331137 0.012928244 -0.12859444 0.3256098 -0.2593325 0.0801817 0.16896008 0.089701556 -0.031926297 0.07267301 0.16974151 -0.28939578 -0.068673864 -0.0069100265 -0.025087824 -0.39043498 -0.20789723 0.14483069 0.1373684 0.33195302 -0.041628785 0.08345235 -0.29382545 0.19831279 0.087288834 0.21002108 -0.24432518 0.21320485 0.5496441 0.19911219 0.44383302 -0.3239486 -0.21454044 -0.1951665 0.019793857 -0.14017609
hsa-miR-106b-5p -0.24517727 -0.29467806 0.12272019 0.36325574 0.047801416 0.21089152 -0.051873665 -0.16387567 -0.08068104 -0.18135037 0.47188646 -0.25813285 0.31158897 -0.2536195 0.10602145 -0.2275491 0.16273916 0.12413107 -0.005210731 0.015637286 -0.27285862 0.16470851 0.31721723 -0.17650466 0.2624765 -0.105912894 -0.022677986 -0.033035066 0.17238158 -0.038745962 -0.16158594 0.049140155 -0.26240364 -0.07359752 0.45940313 0.37089986 -0.032432564 -0.006690435 0.30367628 -0.026689356 -0.19761212 -0.10156185 -0.11440013 0.027715191 -0.10071278 -0.009806833 -0.11302354 0.084901325 0.4707876 0.018233223 0.1288889 -0.036086746 0.08411894 -0.2539986 -0.1256397 -0.06389694 0.0795819 0.15546006 0.17215846 -0.1560062 0.062803276 -0.26096797 -0.1196146 0.003041077
5329102 0.19184667 0.09853652 0.15974057 0.17153819 -0.09653607 -0.012106748 0.23745352 0.4975474 0.18679807 0.16173588 -0.020203862 0.2690284 -0.028315023 -0.09910569 0.63479817 0.1224101 0.045612562 -0.3396939 0.21726368 0.24192809 0.017109234 -0.025048224 0.076217584 0.1478804 0.26130867 -0.09988597 -0.107223146 -0.0061034835 -0.25330994 -0.19414793 -0.43407282 -0.08298517 -0.34836346 0.15407029 -0.0047641355 0.37327358 -0.45589957 -0.023203341 0.11948252 -0.24424407 -0.09403785 0.026401497 0.08654116 0.17001182 -0.2709119 0.0037037919 0.24236575 -0.23124722 -0.119089425 -0.030763067 0.2447203 0.19661112 0.20826638 0.13957456 -0.027000364 0.009137371 0.01812044 0.47657594 0.52789634 -0.26798418 0.18814191 -0.08746996 -0.1364012 0.20132445
hsa-miR-193a-3p 0.15120025 -0.17628048 0.2158498 -0.0978286 -0.32164016 0.47918037 -0.08374819 0.00021938306 -0.17600387 0.16277036 -0.030862208 -0.24332507 -0.17295377 -0.018654784 0.7339649 -0.28471452 -0.23588784 -0.020287601 -0.34527415 -0.25309923 -0.18446517 -0.22334535 0.10199111 -0.12058245 -0.16686708 0.072424494 -0.12806576 0.11856698 0.23925273 0.07900753 -0.21383151 0.094025925 -0.6417915 -0.011375446 0.2521199 0.3342298 -0.030915974 0.11047211 0.0021218357 0.11191108 0.23969409 0.043093346 -0.0079165455 -0.06135729 -0.26453713 0.06781998 0.18135673 0.19363241 -0.107652225 0.4083725 -0.144535 0.13804212 0.33209804 0.058815103 -0.058967423 -0.036436718 0.14967741 0.28865442 0.205422 -0.15243489 0.003403765 -0.19791673 -0.0834231 0.3118847
2767 0.11591005 -0.0936542 -0.15521629 0.25979054 -0.059052248 0.05667031 -0.035220265 0.3536416 0.05555187 -0.27139097 -0.04358065 -0.2810098 0.0014726383 0.042916384 0.1576893 0.15364584 0.28635606 0.0494918 0.073548295 -0.013488261 0.19585264 -0.26349658 0.12204639 -0.38735607 -0.20946221 0.046137374 0.13663246 0.09830675 -0.006695642 0.04297749 -0.3216022 0.040250465 -0.24044792 -0.06920903 -0.04852243 0.021896798 -0.18474361 0.094125465 0.12809448 -0.044637 0.19321308 0.012624996 0.041792557 0.3456044 0.12779713 0.11790908 0.07477655 -0.15768583 0.075640485 0.031893276 -0.06597341 0.07513303 0.122148685 -0.05454614 -0.21701483 0.2279245 0.24875021 0.2513731 0.17050894 -0.2544605 0.049183898 0.11004196 0.06686181 0.07756972
hsa-miR-634 -0.26558998 -0.100677 0.3052337 0.04869706 -0.047706954 0.22053193 0.014659062 0.1280219 0.23940234 -0.08618024 0.044343125 -0.4067807 -0.17778309 0.033506364 0.31587017 0.17276219 0.17937472 -0.07107107 -0.09106206 0.30327266 0.1261353 -0.10143085 0.47292972 -0.017314352 -0.086413294 -0.36196545 -0.19358993 0.31853557 -0.08032442 -0.07368344 -0.18519227 0.19777973 -0.07511609 -0.24227855 -0.19703001 -0.049439862 -0.025348242 -0.08795064 -0.012943274 0.014717952 -0.01960091 -0.13286872 0.2622307 0.17595375 0.23063122 -0.02676726 -0.068691246 -0.1516685 0.18459165 0.06500742 -0.044186804 0.31354365 0.27508548 -0.29337195 -0.059056323 0.18893658 0.10348234 0.0067679426 -0.21854316 -0.05200436 0.19034857 0.18995923 0.23965546 -0.2566452
60700 0.43070537 -0.373037 0.071552254 -0.20150466 0.08942494 -0.34894744 -0.21018858 -0.066665284 0.27487174 0.11539989 0.5943224 -0.23204012 -0.11705528 0.13360007 0.46125272 0.0734219 0.19292514 -0.051451854 0.37734768 0.109551 -0.09659199 0.022719186 -0.08607601 0.078692794 -0.12579364 -0.20725498 -0.11982331 -0.22300816 0.015755005 -0.56737274 0.12045141 0.0071157445 -0.20304193 0.024409968 0.3360483 0.2383032 -0.7001077 0.30134228 0.055788253 -0.048429616 0.76212466 -0.2607218 0.4768569 0.1616373 0.32571167 -0.11091309 -0.5746081 0.18000455 0.5802765 0.031998895 -0.35393122 0.23274496 0.06654192 0.4455994 -0.19256514 0.39210886 -0.07010711 0.3003802 0.15970704 -0.10834243 -0.041716836 -0.033426374 -0.6008696 0.14157368
hsa-miR-500a-5p 0.47347832 -0.4259737 -0.13338797 0.085941784 0.4016777 -0.081654005 -0.09529626 -0.33308673 0.5158338 0.105235405 0.3383557 -0.30809587 -0.18502314 -0.10172888 0.33754575 -0.13348515 -0.12640093 0.12723954 0.101192355 0.06745954 -0.07049424 0.017239636 0.014758909 -0.01568778 -0.16876987 -0.16848212 -0.083812274 -0.1388558 0.32919186 -0.12917429 -0.15989651 0.122085854 -0.45739305 0.10846079 0.3668643 0.15693615 -0.28032598 -0.059757777 -0.23655897 0.15220383 0.22476704 -0.098669544 0.46203613 -0.047696613 0.16600277 -0.1787513 -0.19819777 0.28176504 0.42342788 -0.032937214 -0.3317881 0.4276219 0.018777056 0.3761246 0.0547206 0.19418943 0.05080415 0.1935451 0.28909275 -0.03465732 0.054863043 0.23324402 -0.18550864 0.034233306
5280453 0.28284526 -0.39301193 0.25596303 0.2176862 -0.15243112 -0.114153646 -0.15850267 0.52599657 0.42092484 0.018962406 0.16553764 0.29759946 0.4433725 0.19114858 -0.26618704 0.3200385 0.0898063 -0.016953066 -0.3067013 -0.11688676 0.16022912 -0.102853596 0.13941027 -0.14294772 -0.092655316 -0.15287742 0.027260443 0.14955968 -0.07824664 -0.33173624 -0.31749007 0.121738285 -0.366061 0.2575914 -0.1053235 -0.42935812 0.17302187 0.23265806 0.07698765 0.06272984 -0.30384958 -0.3419732 0.06347916 0.11260861 0.35327 0.23578505 0.08158912 0.7492982 0.3181001 -0.35146078 0.24094528 -0.13186593 0.21409822 -0.48760477 -0.32610038 -0.16840088 0.11479421 0.15648098 0.12746559 0.17851622 0.9084005 -0.010548483 -0.17465097 0.46013907
hsa-miR-629-3p 0.2059604 -0.62028474 0.6642644 0.10428785 -0.39315704 0.08362627 -0.23736407 0.33424228 0.29599205 0.22201538 0.3133222 0.47155708 0.404539 -0.1986105 -0.25647804 0.51849526 0.23474151 0.2792848 -0.27887842 0.0050860518 -0.077816404 0.07920354 0.097758114 0.21809447 -0.72299355 -0.10431362 -0.1323555 0.08448883 -0.19457611 -0.6733535 -0.14974932 0.15238023 -0.2484121 0.12200215 0.074264415 -0.62330693 0.2850932 0.26242888 0.14413539 -0.21427327 -0.18260841 -0.4214216 -0.16983032 0.28750595 0.37604764 0.087795645 0.49408776 0.45263317 0.83555925 0.031288076 0.31661966 -0.06701195 -0.05082465 -0.71527845 0.12900592 -0.25271982 0.22971262 0.34302902 0.31490892 -0.23726398 0.8866623 0.040542465 0.024968127 0.6697448
702 0.29023156 -0.43299302 -0.3005284 -0.305925 0.3370677 -0.23627342 -0.13610435 0.16685954 -0.2864902 0.22938503 0.3991012 -0.29271963 -0.50751525 -0.3319166 -0.13850775 0.2930043 -0.20327783 0.27964863 -0.2632718 0.37214473 -0.1481419 -0.14601113 0.38151443 -0.16319273 -0.014523862 -0.14793888 0.5880439 0.9908121 0.16776638 0.5299526 -0.32971123 -0.025003444 0.08221672 0.12682024 -0.022202764 -0.29127517 -0.03892086 -0.28674075 0.5277182 0.16563198 0.28928927 -0.030124938 -0.33783674 0.23620212 -0.4154051 0.16391729 -0.19178748 -0.123674884 0.34361368 0.108385734 -0.17224309 0.18646063 0.33318168 0.3128489 0.15509704 0.1396264 -0.14091168 0.42153624 0.25782767 -0.110530026 0.59489244 0.059388142 -0.29814538 0.48339525
hsa-miR-15b-3p 0.26903927 -0.52067447 -0.5417017 -0.30514508 0.5391468 -0.29706043 -0.35607257 0.4016811 -0.19581151 0.27500787 0.4764029 -0.10916103 -0.52797335 -0.5361616 -0.21125972 0.4214174 -0.338174 0.045616925 -0.17149544 0.48564216 -0.1550312 -0.23411329 0.67597073 -0.23885217 -0.040840205 -0.079429656 1.2111223 1.301768 0.160411 0.6232346 -0.18815759 0.08580463 0.15633063 -0.13425517 -0.15667576 -0.2647441 -0.14228423 -0.25942916 0.5771033 -0.12811407 0.3433062 0.06254854 -0.40459704 0.042818278 -0.39448068 0.36863634 -0.26974133 -0.20584731 0.645254 0.3011402 -0.24352488 0.24241526 0.5837373 0.37148395 0.16820672 0.3245485 -0.056487232 0.46229953 -0.027594078 -0.26029426 0.6640764 0.4390758 -0.45216146 0.29743746
hsa-miR-587 -0.08442678 0.08012412 0.15586749 -0.01588573 -0.080078565 0.06938668 0.1917844 0.063701175 0.08499446 -0.001858876 -0.15746793 -0.4550242 0.06346085 0.031273585 -0.14816622 -0.04868695 -0.1557559 0.110264756 -0.07053721 0.0063949698 0.010363611 -0.07550792 0.066717885 -0.0050005894 -0.11243296 -0.2630541 0.021353649 0.26696754 0.07764538 -0.23516983 -0.14693925 -0.017412582 0.07023546 -0.29831004 0.27884093 0.15380704 -0.22750379 0.050285127 -0.15823019 -0.019195521 -0.086971 -0.43005693 -0.05796279 -0.0067989826 0.159816 -0.072312795 0.11953683 -0.08173259 0.07465984 -0.18430355 0.10257901 0.22724277 0.1857336 0.1706638 -0.25637034 0.16493268 0.03969643 0.36364478 0.25366932 0.10055326 -0.0012682299 0.12807639 0.017912982 0.053577144
3071 0.30395055 0.2986945 0.510914 0.0025644656 -0.10753934 0.09912922 -0.302059 0.44517112 0.017001713 0.05409337 0.11838083 -0.08061897 0.08220356 -0.38796276 0.67004484 0.5005463 0.1257994 0.18762702 -0.17404315 0.2699803 -0.13909613 0.41194722 0.2525323 -0.23741844 -0.1296145 0.04882576 0.035289492 0.2941127 -0.7305473 -0.065885 -0.1978661 -0.5955259 -0.18246867 0.03371638 0.6485345 -0.09959087 0.32765505 0.17017412 -0.22378694 -0.026448855 0.24210133 -0.45774093 0.23615524 -0.25803956 -0.12893473 -0.23533963 -0.6578164 -0.029006867 -0.2778839 -0.07572603 0.09454847 -0.106508955 0.30620024 0.3833941 0.03090787 0.24167022 0.041341156 0.53663236 0.33858517 -0.46630502 0.21645494 -0.079074904 -0.1247005 0.098955154
hsa-miR-92a-3p 0.024373038 0.25262028 0.31612328 0.10798079 -0.115420826 -0.14211519 -0.30680832 0.040463597 0.117567904 -0.06691314 -0.07026847 0.10918546 -0.013341549 -0.29904845 0.33820558 0.25314805 0.228967 0.07960862 -0.40245152 -0.11582952 -0.14028974 0.26779372 0.29511684 -0.12429335 -0.001446505 0.12647884 0.19283377 0.4810625 -0.4100156 -0.114231244 -0.27793744 -0.290594 -0.19768794 0.031827804 0.28079483 0.3478895 0.06874212 0.26294047 0.09781138 -0.27748966 0.03161745 -0.4529717 0.17967345 -0.111227095 -0.07738754 -0.31024018 -0.20591709 -0.023642763 -0.30156466 -0.10366981 0.15047744 0.10579515 0.14257953 0.08684139 -0.13929518 0.17527041 -0.046824113 0.4520494 0.42557958 -0.092407815 0.16964054 -0.20151064 0.14155963 0.23067456
hsa-miR-24-3p 0.4573198 -0.43826059 -0.17206955 0.08390413 0.16598953 -0.12844996 -0.17164838 -0.17671546 0.14939234 0.18216252 0.563975 -0.36930108 -0.22915953 -0.16177255 0.023073394 -0.06265607 -0.02528821 -0.12041706 0.027984694 0.24493404 -0.07520458 -0.16913497 0.21964408 -0.052589756 -0.16576856 0.02238434 0.16021942 -0.016680365 -0.036911007 0.17656131 -0.005877797 0.15182422 -0.17378871 -0.10385735 0.30303842 0.2790846 -0.38414705 -0.17687617 0.13772048 -0.0015226848 0.106282935 -0.13685673 0.23611222 -0.09623012 0.049378198 -0.21807404 -0.44605273 0.1727637 0.33605334 0.024899222 -0.037264854 0.12482409 0.13691239 0.054566983 0.057256937 0.09834783 0.17224526 0.19588615 0.2583178 -0.25050676 0.16320735 0.026154285 -0.26367375 0.24982616
2520 0.012343752 0.07061157 0.008839283 -0.17122172 -0.057068747 -0.039155707 -0.16626161 0.05513466 0.07267808 0.12429694 -0.051723953 -0.5889293 0.11501825 -0.15372674 0.1498045 -0.04937223 0.096948 -0.06701653 -0.073523246 0.01569626 0.22037883 0.044398647 0.098666094 0.042535618 -0.08734586 -0.14139116 0.25190404 0.026224695 0.26099318 -0.26804852 -0.096416645 -0.3249674 0.014637179 -0.06097401 0.20361361 0.022541499 -0.28558353 0.08209888 -0.10608063 -0.107388616 -0.080819346 -0.3302414 -0.09338663 -0.049290534 0.05826992 0.19889688 0.33019432 -0.022416335 0.27330023 -0.1501841 0.16245613 0.1764514 0.04683994 0.022012973 -0.3118302 0.0561592 -0.3003901 0.46364352 0.3830805 0.15419985 0.05943257 0.14167565 -0.15125991 0.02041279
hsa-miR-758-3p -0.5672469 0.034605864 0.21732596 -0.085177615 0.3192302 0.03223939 -0.070027135 0.10873726 -0.00866935 -0.17438318 0.37459514 -0.28667158 0.526728 -0.4945198 0.15020297 -0.12143021 -0.23828708 0.08908817 -0.012161087 0.077348754 0.21647854 -0.01881771 -0.061469775 0.03361601 -0.25619543 -0.3019527 0.1018235 0.089408025 0.11229306 -0.09373259 -0.06106666 -0.030710794 -0.12467452 0.058665942 0.22468708 0.018789636 -0.44617003 0.06777102 0.1040533 0.18392596 -0.096467994 -0.38076684 -0.17219695 0.050365336 -0.09396451 -0.16435665 0.076281644 -0.3336182 0.3734357 -0.08559723 0.14618026 -0.1274538 0.51894814 -0.15082307 -0.33043787 -0.22130641 -0.037534475 0.14213647 0.46579129 0.07108222 -0.0653873 0.07958101 -0.20201936 0.052772883
448537 -0.30867672 -0.44638422 0.1308811 0.55507225 -0.03652857 -0.16502023 -0.115251385 -0.047744434 0.22185022 -0.49603486 0.16019303 -0.33037797 0.061891202 -0.05868043 0.043758094 -0.19863644 -0.25787488 0.03462205 -0.0045007914 0.027894443 0.1928542 0.19924684 0.08292809 -0.056710802 -0.017662525 0.06281152 -0.010213736 0.3093115 0.16249186 -0.04928033 -0.3615417 0.070553474 0.14167345 -0.0038806964 -0.19848661 0.41414303 -0.19246562 0.17176677 0.4154128 0.005411704 -0.03588254 -0.2508504 0.10403864 0.21586408 0.031585038 0.2996032 -0.17693765 -0.09871167 0.4464964 0.3322873 0.2314186 -0.41738176 0.22471611 0.04091475 0.009011692 -0.3477337 -0.22820312 0.06841426 0.4140533 -0.12934002 0.3629392 0.28597268 -0.16451675 -0.20070276
hsa-miR-106a-5p -0.22958975 -0.20044538 0.067927204 0.2947328 0.14864075 0.04104552 0.2113485 0.12621383 -0.05728256 -0.06694956 0.12675317 -0.3215728 0.24482162 -0.024253624 -0.11105795 -0.42793462 -0.03358162 0.0661125 -0.2803133 0.045002434 -0.22175191 0.25929764 -0.033509843 0.05476117 -0.09459811 -0.07050748 0.020276083 0.4788165 -0.26145002 -0.30173796 0.03209377 0.117649436 -0.19205543 -0.11743263 -0.08307268 0.10218612 -0.12813823 0.2322068 0.11651485 -0.22389498 -0.10268025 -0.19214168 0.06768329 -0.10374997 0.09770652 -0.074794725 0.041392732 -0.066196576 0.29881647 0.2798202 0.2469401 0.02242055 0.12346229 -0.1928438 0.28459284 -0.0012056468 -0.15064873 0.16796267 0.09974495 0.0086133955 0.16512674 0.002047134 -0.27989364 0.18552959
13342 -0.16067453 -0.7101149 0.010618785 0.3104946 -0.012420522 0.00282195 0.06393367 0.27267385 0.27285033 0.25662157 -0.109598026 0.13790303 -0.23292184 0.15597866 -0.19349654 0.34867662 0.2943259 0.21977732 -0.14145036 -0.3713005 -0.07356429 0.60895246 0.4834519 -0.09110093 0.28022546 -0.70006776 0.29396436 0.032446712 -0.19169547 0.33229864 0.3183123 -0.057959862 -0.40190548 -0.0818918 0.23797421 0.0072250245 -0.53073317 0.019709479 -0.15178789 0.027632674 0.19083117 -0.18682356 0.8316825 -0.010129249 0.031719007 -0.5502164 0.15076965 -0.13861002 0.29696417 -0.52659833 0.34443113 0.008614777 0.25610286 0.051427264 0.048486978 -0.27550283 0.16265649 -0.141691 0.61679256 0.003145805 -0.29066482 0.15877843 -0.37219706 -0.070442446
hsa-let-7g-5p -0.22585005 -0.08708924 -0.0029390324 0.21260628 0.17718285 -0.094775915 0.33273453 0.29763383 0.104936555 -0.06445477 -0.010108388 -0.09175497 -0.15460582 -0.25239438 -0.18608755 0.12553884 0.19573614 0.11622592 0.038270302 -0.057989962 0.10203608 0.030810202 0.10293701 -0.08207742 0.17019723 -0.23440829 0.37150368 0.10901356 -0.03318663 0.1261612 0.14588952 0.018893167 -0.45070744 -0.040316194 0.1214483 0.11768454 -0.27301195 -0.050246682 -0.08236996 0.05934049 0.37723422 -0.32084325 0.077927075 -0.17349738 0.1732739 -0.1492441 -0.010731926 0.046557717 0.12977609 -0.17706813 0.054501817 -0.10758943 0.45402497 -0.20331499 -0.13983244 -0.112548664 0.14313725 -0.03104441 0.1956799 -0.23565792 -0.16049187 0.029865917 -0.25927114 0.10484614
5310940 -0.041031044 0.05524293 -0.10707024 -0.022092784 -0.120407134 -0.00470874 -0.020007342 0.073995985 -0.0088891145 -0.1572308 -0.19429997 -0.110989034 -0.10034021 0.031055126 -0.10754995 -0.011912069 -0.15439945 0.017432533 -0.2230189 -0.075608194 -0.15146352 -0.13163787 0.15047348 -0.13992691 -0.15394677 -0.16948953 -0.2951851 0.30063823 -0.075856246 -0.452479 -0.32389736 0.07450464 0.075186834 -0.43991342 0.049419027 -0.03458348 -0.40568715 -0.26280466 0.24529022 -0.17178108 -0.16446324 -0.35764965 0.16613024 0.006808868 0.25710636 -0.08809004 -0.07131418 -0.07105103 0.08798417 -0.0036378673 0.21681204 0.18667562 0.16028675 0.022956025 -0.31533235 0.117788404 0.17027721 0.15697522 0.20451762 -0.13939096 0.15300731 0.1807903 -0.008111929 -0.026197016
hsa-miR-424-5p -0.060509242 0.097384706 0.049767982 -0.030856458 0.064123325 -0.26604304 -0.12356547 0.06627269 0.2597811 -0.4070488 0.0926443 -0.020520527 0.04067678 -0.044044126 -0.11805215 -0.07715087 0.10194859 -0.07651105 -0.21863861 -0.1154756 0.2313549 0.22181799 0.12952904 -0.05523618 0.0030608494 -0.35626024 -0.021753252 0.24190527 -0.10118857 0.056068312 -0.13521937 0.06919307 -0.39208356 0.0075645233 0.036847673 0.03174101 -0.45844087 -0.078136764 0.030013267 0.14780964 0.11649247 -0.18281195 -0.114775136 -0.19438113 0.06390668 -0.20084971 0.11934745 0.083588764 0.07310336 0.16049476 -0.040461153 0.033623736 0.20277962 0.09070729 -0.10082005 0.19443241 0.13556384 0.014407778 -0.040942635 -0.03762749 0.053635035 0.013656994 0.11766879 0.096726514
148124 0.020010427 -0.33513552 -0.13065806 0.12816486 -0.16520262 -0.48042285 -0.16545454 0.013657123 0.48515558 -0.072422214 0.027794221 -0.32357362 0.13272476 0.11684816 0.2668184 -0.12879664 0.16709164 -0.0019679696 -0.28028893 -0.05646212 -0.021752456 0.21284512 -0.098989025 0.15383321 -0.21751356 -0.03897345 0.08926943 0.018421637 0.19247791 -0.027576528 -0.15217632 -0.027187025 -0.08753902 -0.030239431 -0.18079397 -0.19892696 -0.50094813 -0.40080258 0.19340228 -0.02990214 0.20674317 0.009016737 0.119590946 -0.11643972 0.15244119 -0.069803275 0.062100846 0.109133594 0.32727295 0.009920752 -0.20167291 0.12418831 0.014933724 0.04288048 0.118190005 0.2331043 -0.004936426 0.09833314 0.1295177 -0.14794315 -0.0045333994 -0.03692817 -0.10578648 0.10430091
hsa-miR-130a-3p -0.25746113 -0.04202078 0.3391397 -0.28990692 0.04913701 -0.14828809 -0.09976064 0.10664225 -0.007965427 -0.07468338 -0.098330766 0.084469244 -0.09813716 -0.082074985 0.096112475 0.21400353 0.54551584 0.10282915 -0.0063386946 -0.016685318 0.10105315 0.07522012 0.22773515 0.096907355 -0.23908871 -0.3559463 -0.06024891 0.34630793 0.15742381 0.03544706 -0.28578916 0.48905036 -0.19105102 -0.09522429 0.006248655 0.104167074 -0.16173823 -0.24828121 0.011062686 -0.20767015 -0.21268053 -0.06215666 0.10966981 0.049927488 0.2002509 0.2012693 0.11238695 -0.026842955 0.42461026 0.39902824 -0.012832671 0.22337346 0.45810822 0.14928453 0.2687542 0.43335488 -0.042138927 -0.14993976 -0.0051095514 0.022043817 -0.039189454 0.18431021 0.123445295 0.14830476
4891 0.14741825 -0.19309714 0.2772844 0.12770487 -0.33827615 0.3703327 -0.09785104 -0.24519208 -0.16651529 -0.41153002 0.44875425 -0.034316577 0.6473211 -0.16225761 0.26592198 0.3733613 0.3071501 -0.23820968 0.10968287 -0.05343132 -0.34015426 0.13532346 0.55129474 0.58758986 0.037742227 -0.3850266 -0.08603611 0.12270624 0.34889206 -0.18611285 -0.34239578 -0.021533849 -0.121889636 -0.00603632 -0.3204588 -0.46244025 0.121691644 0.04134138 0.7767892 0.69824404 -0.05504845 0.11791861 -0.4002336 -0.4630706 0.20770922 -0.20109029 0.009283874 -0.33430097 0.03515355 0.21909833 -0.31105888 0.49086997 0.40791246 0.2766847 0.09802245 0.2868394 -0.34374356 0.096188456 0.39904198 -0.030153722 -0.00509087 0.31086367 0.14347263 0.05739788
hsa-miR-146a-5p 0.17566259 0.044535402 0.05767849 0.18276618 -0.28316408 0.19014022 0.18299165 -0.2845292 0.02259281 -0.14520554 0.25342825 -0.0992776 0.14184697 0.25928873 0.47121835 0.16568844 0.22887565 -0.25498432 0.015481979 -0.05768796 -0.033565834 0.18858002 0.17631805 0.28340057 -0.1593842 -0.3450071 0.24198563 0.30539903 0.0868871 -0.08684434 0.059573628 -0.2947886 -0.113024324 0.04321509 -0.050770525 -0.32862434 -0.041025978 0.1736126 0.2810022 0.48245046 0.017116567 -0.22771508 -0.34397075 -0.58218604 0.05142851 -0.1000598 -0.16150282 0.3304568 -0.050474893 0.18794619 0.18354027 0.1816355 0.635282 0.117834195 -0.27422687 0.13096415 -0.0051941066 0.055533398 0.2110357 -0.17456181 0.07279191 0.072273046 -0.1672317 -0.1590269
5757 -0.07980989 -0.02856999 -0.3103974 0.0028754873 0.12848932 -0.24972844 0.057988055 -0.14571366 -0.0017288842 -0.08563616 -0.12056491 -0.19267687 0.09566566 0.20560944 -0.1804008 0.25263494 0.20726126 -0.04187987 0.2518723 0.11423699 0.24613202 0.22279532 0.04422016 0.17669252 0.0112843765 -0.4365028 0.013969561 0.25246194 0.39631563 0.0102399355 -0.23617554 0.051152878 -0.66102296 0.29216224 -0.1073513 -0.10614684 -0.10877282 0.009413604 0.13300301 0.08948253 0.3404222 -0.53962016 -0.021769019 0.016877983 0.2982709 0.025974706 0.14896198 -0.0952907 -0.11312676 0.33930326 -0.111718714 -0.5009988 -0.010229523 -0.3748245 -0.25166503 -0.12700726 0.08358028 0.44944957 0.056362785 -0.4486577 -0.041174203 0.04914081 -0.2658761 -0.07986196
hsa-miR-17-5p -0.09940447 -0.3249909 0.11636732 0.095616885 -0.041416984 -0.30411533 0.20272529 -0.08224482 -0.0907001 -0.24271396 0.03579706 -0.085137434 -0.057331655 -0.124563836 0.35910317 0.36551842 0.27146882 0.18929772 0.48880032 0.3240636 -0.13174708 0.15738001 0.0020504065 0.20320088 0.013132616 0.1575387 -0.2194192 0.06529278 -0.12570503 -0.43427056 -0.1668254 -0.13574424 -0.22085486 -0.062367465 -0.04631239 0.32323298 -0.46874198 0.06986034 0.0033531946 -0.01407997 0.35862118 -0.28826416 -0.08761063 -0.1569798 0.039809614 0.21354271 -0.31391984 0.075579315 0.4546088 0.027870607 -0.060409904 -0.23277338 -0.044481233 0.076088905 -0.14041357 -0.18168676 0.3431723 0.30955994 -0.12166882 -0.12805448 -0.021726564 -0.066251226 -0.017323928 0.36921585
14888 0.01508158 -0.4822306 0.03431782 0.14517163 -0.021126967 -0.13081412 0.12689064 0.024417875 0.30789745 -0.004183263 -0.20897481 -0.1782465 -0.18291056 -0.25393724 0.037683852 -0.0141932955 0.19136786 -0.013892011 0.033233188 0.29162532 -0.06954517 -0.3517205 -0.21864274 0.107181765 -0.09677925 -0.0961098 0.16840439 0.15961625 0.014175073 0.06999128 0.011099181 0.1712432 -0.16953395 -0.056561783 0.089237295 -0.21233143 -0.24596284 -0.27662212 0.31211358 0.007413859 -0.010691335 0.0031147124 0.2220059 -0.51047605 0.2248288 0.24410066 0.15755783 0.24755096 -0.1847194 -0.2710992 0.010659967 -0.13738284 -0.010057207 -0.1020686 -0.2107228 0.028204354 -0.041521188 0.0985396 0.24252868 -0.37959296 0.24291186 -0.0132821165 -0.07530406 0.25177604
657237 0.29008904 -0.27868068 0.3610389 0.4203325 0.39729056 -0.13497098 0.027957566 0.42966026 -0.33945382 -0.40291873 0.00909297 -0.20411365 -0.16993661 0.26303273 0.48054016 0.3059849 0.26481313 0.015324296 -0.13020445 0.18327674 0.039084475 0.24115936 0.17796339 0.0037596351 0.14363544 -0.13588762 0.029778728 -0.30985352 -0.05732746 -0.22760266 -0.21849823 -0.14646003 0.041871395 -0.18560943 0.11855031 -0.24012727 0.33577356 -0.34581614 0.13157147 0.2769851 0.32267538 -0.30457932 0.34520137 -0.30247325 -0.49447778 -0.22515057 0.3766659 -0.046438433 -0.068349764 0.023666654 -0.61396694 0.15534285 0.34009907 -0.079769395 -0.113803454 0.24812561 -0.2286912 0.15920782 0.24703205 -0.34597966 0.46908864 -0.12917584 0.08268459 -0.048671514
hsa-miR-485-3p 0.30765873 -0.46243802 0.21085146 0.055474814 0.52382773 0.23215137 0.22060396 -0.005986424 -0.1361209 -0.5423354 -0.17761709 -0.42749608 0.070888445 0.20938416 0.4197666 0.28265762 0.26387405 0.050045885 -0.0074340776 0.09341449 0.04716734 -0.008142428 0.2636284 -0.14114754 0.17162316 0.19258091 0.1514592 -0.014648886 -0.05430814 -0.23534268 -0.069361754 0.025653198 -0.3386009 -0.26585826 -0.0027141038 -0.07804996 0.09494053 -0.06148689 -0.15240994 0.25630778 0.25405127 -0.15244012 0.5563064 0.12924223 -0.24602981 -0.1949681 0.43872884 -0.030292407 -0.07020067 -0.08977003 -0.42254552 0.42733806 0.17306975 -0.1386231 -0.27489862 0.010565358 -0.28496903 0.2202812 0.070801 -0.07134792 0.48321903 0.13482645 0.1217451 -0.120390326
hsa-miR-450a-5p 0.14394741 -0.20493624 -0.2834643 -0.086481705 0.04643918 -0.41907632 0.032832548 0.12278161 -0.29847196 -0.054950923 0.55989474 -0.45961273 -0.18151519 -0.14898597 -0.1388375 -0.20451386 0.016284645 0.23634224 -0.33865753 0.14365104 -0.08860668 0.030966105 0.12054251 0.12591603 -0.039976712 -0.28407353 0.36060786 0.6954872 0.16562948 -0.0562401 -0.063438915 0.120205596 -0.2537501 -0.10206989 0.17794806 -0.15247847 0.045463253 -0.018544342 0.056320205 -0.035274904 -0.03893887 -0.062666535 -0.079290465 0.029028285 0.0063736844 0.3415893 0.04560158 -0.09501666 -0.018051468 -0.012844452 -0.012990473 0.21887611 0.05731762 0.16180108 0.04727502 0.18205056 -0.20241858 0.39473853 0.1737051 0.32927063 0.15203112 -0.17545953 -0.12179481 0.33000374
5793 -0.21005803 -0.20371985 -0.016309105 0.42187366 -0.09016307 0.18353175 0.037338402 0.15246062 0.016840056 -0.20997919 -0.080298476 -0.20997706 -0.40113547 -0.186588 0.22999819 0.40515545 -0.39702618 0.21846391 -0.20448303 0.11136976 -0.022894956 -0.072167896 0.1018441 -0.0011525996 0.013355806 -0.07918991 0.33974412 -0.23052493 0.28461263 -0.32670087 -0.021905823 0.106318705 -0.21485049 0.6382582 0.27805376 -0.2367767 -0.38439882 -0.045640193 0.36474553 -0.4108684 -0.23541595 -0.32182723 0.15236674 0.11208074 0.1567449 0.10796182 0.09103601 0.15249 0.26084495 0.27769512 0.16809674 0.098085195 -0.07868287 -0.01791526 -0.061345935 0.34856766 -0.030863183 0.09815939 -0.042277474 -0.043495625 -0.24452852 -0.036045026 -0.077349044 -0.0420232
hsa-miR-296-5p -0.057236418 -0.1722217 0.108247645 0.16044348 -0.17206927 0.05565266 0.032722626 0.31987843 -0.043020315 -0.12786414 0.077628374 -0.270587 -0.07306411 0.1207787 0.2502592 0.31062472 0.025092298 -0.026453823 -0.080864176 0.13895063 0.33297145 0.32455605 -0.0038755003 -0.17774123 0.26306063 0.14339474 0.06875614 0.078589685 0.13755465 -0.21287498 -0.16897345 -0.045954034 -0.4119887 0.081950165 -0.07916808 0.058326 -0.10085832 -0.0014169887 0.095111 -0.0639394 -0.040242147 -0.14218353 0.055767126 -0.2708274 0.02392245 -0.074940644 0.072394565 0.2171469 0.08872886 -0.05724728 0.31231487 0.33620435 0.07982408 0.14749075 0.3187909 0.28220075 0.29679066 -0.04018081 0.21119867 -0.073826894 -0.09177143 -0.022957148 0.13608839 0.056418605
97226 -0.36746573 0.10835034 0.08879204 0.09732007 0.019651432 -0.26498622 0.40899232 0.28889233 0.2618015 -0.48247242 0.092277184 -0.06647768 0.23782897 -0.43413204 0.20655362 0.039405793 -0.14249422 0.1002848 -0.43835762 -0.103360124 0.30124024 -0.6007332 -0.12252251 0.12926033 -0.34217012 -0.5412286 0.09160692 0.25145584 -0.13069244 0.24177374 -0.38013464 0.011525028 -0.66663563 0.1965914 -0.3524036 -0.17764382 -0.35799307 -0.030492285 -0.23767686 -0.16650693 0.13864344 -0.27529302 -0.17314574 -0.32327572 -0.17691623 -0.17382404 -0.03782845 -0.19900173 0.30559564 -0.032052953 -0.18573062 -0.0647723 0.097104885 -0.013005852 -0.1982462 -0.0057069934 0.31872112 -0.108227 0.22184989 -0.06752152 -0.10005514 0.010268504 -0.29473442 -0.17230046
hsa-miR-98-5p -0.18502592 -0.5145771 0.06889101 -0.19125415 0.19575717 -0.24710225 0.031761993 0.2722044 0.551343 -0.20113452 -0.030606242 -0.08069196 0.3528307 -0.010579815 0.16367304 0.03456249 0.0046649813 0.28694847 -0.3617537 0.06525687 0.039443348 -0.32205033 -0.28880814 0.17952915 0.04074584 0.030400144 0.13330516 0.08397673 -0.26819482 0.114486955 -0.27951998 0.2069479 -0.30263305 0.1798875 0.10602796 -0.23576635 -0.3534316 -0.016909828 0.06366352 -0.11781518 -0.216473 -0.18419068 -0.15598248 -0.24257867 0.42543432 -0.15465242 -0.17640994 0.76562697 0.048604038 -0.04930097 -0.05680044 0.17041309 0.24591109 -0.07072544 -0.08055279 0.019863794 0.19849786 0.0838727 0.08273362 0.22218269 0.26327416 -0.08635009 -0.1838747 0.1662032
hsa-miR-1247-5p 0.10850859 -0.06415193 0.111290656 0.14188306 -0.23797847 0.12946816 0.16485994 0.22675805 -0.1300075 -0.0020542056 -0.29747432 -0.1220572 -0.06868506 0.0092309015 0.02059601 0.015704786 -0.25095934 -0.16350305 -0.3577083 0.00017886917 -0.03410829 -0.03926669 0.092734076 -0.2668917 -0.06044245 -0.13870142 -0.011815291 0.13736026 -0.09154114 -0.16926792 -0.29988727 0.29117346 -0.15091774 -0.42960408 -0.09856352 0.19814388 -0.19934483 -0.033117224 0.31010556 -0.06818582 -0.25596145 -0.36609268 0.19297636 -0.30819863 0.19795913 -0.42055163 0.08178827 -0.008037344 0.11844019 -0.045328226 -0.08215401 -0.1228595 0.029819503 0.19107482 0.041921828 0.17684531 0.07854719 0.20806606 -0.19431444 0.2650448 0.13492604 0.36466005 -0.047941573 -0.08397438
123631 -0.09955571 -0.061778918 -0.116432555 0.06571095 0.041721236 -0.08692623 -0.03515132 0.14456052 0.07705631 -0.037794665 -0.011498722 0.29360974 -0.079597406 -0.17479481 0.1371777 -0.047612444 0.37592465 0.1241746 -0.24976093 0.11494336 0.011607268 0.16009799 0.62253684 -0.20037262 -0.25448906 -0.16281784 0.08152371 0.19501735 0.038157277 -0.37701294 -0.36645576 -0.2415939 -0.22535138 0.36025754 0.13154411 -0.007495171 -0.31630665 -0.4348652 0.022948919 0.12648688 -0.085645825 -0.15165043 -0.03345927 -0.22697505 -0.17856452 0.04680662 0.041027863 0.025558146 -0.08671702 0.038829837 -0.087100744 -0.28479135 -0.121589534 0.067162916 -0.17147478 0.6733744 -0.042677548 -0.1416484 0.09796659 0.14241105 0.38638002 0.41699374 0.0011992262 0.08424468
hsa-miR-147a -0.001812219 0.041790735 0.12126294 0.25358954 0.088405855 -0.005821796 0.0966897 0.06391129 -0.19112909 -0.30839118 0.09385671 0.046793412 -0.120086335 0.03222281 0.07610378 0.2361385 0.18088296 0.032640055 -0.43984467 -0.076688 0.071348794 -0.0031831916 0.17394504 -0.20745754 -0.15944256 -0.040379472 0.11793825 0.060477823 -0.14270313 -0.31405905 -0.437535 0.085312754 -0.14495797 0.124503486 0.22887745 -0.032729305 -0.5248387 -0.2780582 0.24914365 -0.21812332 -0.13075286 -0.64471805 0.05133715 0.06661152 -0.09111974 0.30785823 0.019017717 -0.115277804 -0.10790828 0.0795474 -0.14643864 0.15951195 -0.087570235 0.12262576 -0.09486026 0.13585229 -0.09052139 -0.08285402 -0.068775095 0.00041095854 -0.10405218 0.37906578 0.06306778 0.13152932
5280343 -0.020387646 0.052947354 0.20714787 0.3931975 0.16801402 0.046896894 -0.20531867 0.31680655 -0.794359 0.14552101 -0.32947275 -0.37870106 0.8336662 -0.36387742 0.26159972 -0.13522972 -0.076016374 0.20804177 0.3233351 -0.14153726 -0.27833647 -0.37031987 0.21802858 -0.011796551 -0.04003597 -0.53557533 -0.1227291 0.49567616 -0.07144316 -0.101584256 -0.3408897 -0.23116462 0.035763152 0.1779371 0.12793149 0.08247855 -0.5524102 -0.2502716 0.3069936 -0.26830462 0.14666267 -0.053015195 0.15985534 -0.35104203 0.52412784 0.1980246 -0.0026515336 0.7325849 0.08852778 -0.16833921 -0.36904165 -0.14291222 -0.06552502 0.35558406 -0.30542943 -0.010940551 0.5642625 -0.26937094 -0.08469451 0.078903876 0.2557982 -0.10537721 -0.16200449 -0.23134303
hsa-miR-143-3p 0.27279735 0.11657383 0.006742833 0.16968653 0.0321533 0.1645233 -0.005314553 0.22823706 -0.37696415 -0.08495615 -0.030395636 -0.25921097 0.2023463 -0.127192 0.36821863 0.10076371 0.059310682 0.111681424 0.06662282 0.09999704 -0.089231856 -0.37107953 0.28568986 0.07206566 -0.021871433 -0.3885102 -0.21068253 0.14219728 0.21857765 -0.14909588 -0.0123080155 0.1810562 0.06468535 0.11283926 0.49408498 0.15018268 -0.18847762 -0.26415843 -0.039165758 -0.046024572 0.4088746 0.060725816 0.18429877 -0.23731509 0.49971 0.08946105 0.016653566 0.7812268 0.13527937 -0.052735053 -0.0041360864 0.022446834 0.24192671 0.29344782 0.18331623 0.057437655 0.36372617 0.15725827 0.26422328 -0.027987836 0.24962947 0.19097205 -0.30225757 -0.041092668
hsa-miR-103a-3p -0.12333309 0.037164554 -0.36146894 0.11340911 0.1167183 -0.08619679 -0.090063155 -0.08254323 -0.5360524 -0.05473682 -0.06846331 -0.19772735 -0.23431255 -0.23590682 -0.20305939 0.08328342 0.09212509 0.13337472 -0.06022373 0.1566344 -0.11221253 0.079015076 0.31475392 0.02255277 0.13966341 -0.14663132 -0.12695642 0.30324382 -0.15052001 -0.0013084073 -0.17168054 0.09277388 -0.36814165 0.06524379 -0.11905429 0.1882129 -0.3061522 0.2724366 -0.09734042 0.0017896133 0.114162676 -0.044087328 0.037088647 -0.10390032 0.16108124 0.08609116 -0.061761834 0.30256063 0.10990992 0.06935245 0.0010474783 0.18397231 0.3221785 -0.23034072 -0.18347715 0.013620294 0.042351056 0.13958858 0.18579607 -0.2406283 -0.15484062 -0.027821299 -0.37010163 0.078450054
hsa-miR-933 -0.031618476 -0.031375594 0.15221949 0.15459698 -0.01638996 0.06483618 0.13887994 0.27088863 0.16316149 -0.008767502 0.06915308 -0.028500544 -0.092576616 -0.20438637 0.6314692 0.2841174 -0.041424707 -0.18969525 0.115882374 0.18853644 0.333779 -0.11769939 0.2079208 -0.14398064 0.2638128 0.076529644 -0.077859 -0.03275569 -0.037380084 0.022978548 -0.39640784 0.010768423 -0.31760833 -0.112291425 -0.08998342 0.24510624 -0.37929472 -0.033233672 -0.023228304 0.058657628 -0.010174215 0.13846073 -0.039632652 0.21220958 0.026987856 0.017585898 0.3898487 -0.25899297 0.30124307 -0.20400943 0.13229555 0.09318278 0.19817112 0.047300313 -0.23242737 0.033806063 0.041364975 0.22911783 0.28659058 -0.05058697 0.24199201 -0.2086616 0.03644072 0.1982526
54670067 -0.23924847 -0.3627999 0.35267416 0.8310688 0.34751955 0.087508 -0.0517539 0.4013259 -0.17281301 0.16658178 0.20977771 0.019413138 0.019749237 -0.06341883 -0.0393028 0.45091394 -0.1842106 0.102300026 -0.16943157 -0.6553783 0.08148161 0.05331196 0.027447542 -0.0067335013 -0.3177497 0.04132665 -0.3617618 0.182962 0.6168199 -0.07516385 0.41812912 -0.14305931 -0.5410835 0.1080805 -0.2954646 0.17661521 -0.16655958 -0.39415047 0.02126138 -0.30668473 -0.5527956 -0.12217778 0.27224293 -0.019011853 0.25993353 0.051581927 -0.08953134 -0.28343967 -0.23335649 0.23682995 -0.15764326 0.5320262 -0.096580885 0.2602057 -0.5728459 0.27964166 0.8070416 0.21960205 0.07760501 -0.047402993 0.45772916 -0.16512878 -0.48329744 0.55816156
hsa-miR-99b-5p 0.15817401 -0.2037327 0.32533067 0.4212795 0.05252918 0.058738034 -0.07912332 0.28774709 -0.37114486 0.009151326 -0.06557656 -0.13240911 0.35534725 -0.28190142 0.08913745 0.023556378 -0.018485937 0.20934387 0.1903141 -0.28392583 0.32411447 -0.0221112 -0.00069397053 -0.009146393 -0.020065023 -0.2285644 0.0030452437 0.77222484 0.12212618 -0.12868418 -0.11518349 -0.16956799 -0.16102743 -0.034511928 -0.24240232 0.09703637 -0.44014895 0.10076994 0.050319236 -0.149816 -0.07888067 -0.04715809 0.15960947 -0.25740266 0.07384194 -0.115567185 0.1385808 0.14247091 0.00702775 0.05716206 -0.11354817 0.14917968 -0.01601723 0.28979707 -0.2963872 -0.07329349 0.44603106 -0.12677936 -0.3171277 0.017103475 0.26107222 -0.015820095 -0.20431383 -0.10483311
2733526 -0.030507395 -0.2428942 -0.047009807 -0.064573064 -0.31966504 -0.06813062 -0.06394431 0.11845262 -0.34077114 -0.17965057 0.03400678 -0.3471876 0.11605088 0.27961406 0.1716419 -0.12697834 0.0050319727 0.12096581 -0.22805548 0.12506953 -0.033247814 0.026504042 0.1072621 -0.1633884 -0.3859411 -0.313881 -0.011732143 0.36188644 0.13571334 -0.34591353 -0.27356294 0.24123059 -0.17341952 0.3461814 -0.13150054 0.0712042 -0.27525842 0.29093868 -0.04322896 -0.022616852 -0.09222349 0.22925696 -0.0008653875 0.022050885 0.027476145 0.18306608 -0.061159723 -0.07506951 -0.030548269 -0.12787671 -0.0031668623 0.13411078 -0.1892561 0.1056532 -0.18746436 0.032516737 -0.29224867 -0.061150644 0.2887804 -0.33058482 -0.06440155 -0.19087948 -0.37151217 0.25904745
hsa-miR-15a-5p -0.0008468885 -0.44686037 0.151223 0.18737446 -0.2855795 -0.20130348 -0.09345578 0.082467355 -0.20098619 -0.009814018 -0.1948289 -0.40481645 -0.008550796 0.24343608 -0.0143027995 0.2566971 0.0068333647 -0.08793307 -0.21590053 -0.02155318 0.23977356 0.20233549 0.3006365 0.18115923 0.058278445 0.10362509 0.13203865 0.15956177 -0.26871383 -0.3595395 -0.027319482 0.14467715 -0.20587134 0.08555596 -0.18040432 0.090876125 0.12435566 -0.0072078854 -0.11016472 0.10622814 -0.12634405 -0.10091715 0.07916183 0.13148339 -0.003780114 -0.06896273 -0.09314693 0.05109591 0.10502473 -0.2661639 -0.07851471 -0.06331069 0.5001522 -0.043864254 -0.15348601 -0.07904294 -0.10067863 -0.023610815 0.064726785 0.046699278 0.3128383 0.07453046 -0.2685291 0.0076661105
hsa-miR-221-3p 0.3757244 -0.3203434 0.2175978 0.20784618 -0.22335927 -0.1327517 0.17907953 0.24550442 -0.13549547 -0.20278515 -0.049961302 -0.16908413 -0.06667443 0.365073 0.03461007 0.08632953 0.03259482 -0.14723895 -0.17220266 0.10297292 0.44677815 0.0629492 0.15720282 0.049052298 -0.031426173 0.046649102 0.10969291 0.046866126 0.04821212 -0.3379472 -0.31077504 0.10687486 0.07195585 0.2422171 0.14929202 0.31900162 -0.16091107 -0.5753203 -0.061745282 0.16845363 0.11232001 -0.16978163 0.026593689 -0.52897877 -0.38536778 0.046034504 0.28578812 0.10677017 0.065628886 -0.14964512 -0.15209387 0.25392967 0.13528237 0.0066084545 -0.009851767 -0.06393711 0.13270125 -0.02248539 0.2020346 -0.05987396 0.19366306 -0.23326509 -0.0032481593 0.19701765
444795 0.23185056 -0.37193772 0.17163102 0.14319205 -0.26869774 -0.20515011 -0.35283074 0.35830897 0.0063757505 -0.13540646 -0.049856763 -0.16336244 0.3317657 0.053678166 0.13793595 0.20891924 -0.11113781 0.6117407 -0.09831847 0.28042462 0.23203188 0.24232693 0.15418942 0.06313409 0.4455378 -0.15834694 -0.25027713 -0.057730235 -0.055921763 -0.18318507 -0.012260409 0.3350318 -0.4676451 -0.12793972 -0.18168066 -0.044253897 0.107909694 -0.0799795 0.08255658 0.48171237 -0.18449152 -0.07044844 0.014808541 -0.15873629 0.36729613 -0.50225466 -0.12922111 -0.23854168 -0.21571332 0.35411605 -0.42229155 -0.2036783 -0.09528121 -0.14306423 -0.36593464 0.28369793 -0.4163066 0.0041850773 0.21664877 -0.23037703 -0.086443454 0.45930326 -0.27542812 0.29436114
hsa-miR-21-5p 0.39142704 0.06634143 0.19296888 0.091847375 -0.023805708 -0.019693235 -0.048322544 0.31177384 -0.24874923 -0.104150645 0.06638125 -0.31383514 0.23935802 -0.005588884 0.615379 0.32342967 -0.026680272 0.27189615 -0.08634193 0.2591576 -0.10467126 0.21468166 0.010520214 -0.14668895 -0.09137194 -0.4444557 -0.17170817 -0.048605055 -0.17857918 0.015105056 -0.13278973 -0.33584255 -0.09919382 -0.1067793 0.28440306 -0.21850158 -0.0280164 -0.022014692 -0.19090284 0.30661437 0.019441752 -0.14441524 0.18010527 -0.3834936 0.004115979 0.12369749 -0.29703423 -0.11572501 -0.014965238 0.28039494 0.08443985 -0.24001779 0.411192 0.09466897 -0.028571177 0.0073556597 0.010656225 0.44431663 0.107327834 -0.3584678 0.07995613 -0.13713405 -0.38524592 -0.18721749
60780 0.6995495 -0.005786809 -0.048227675 -0.121837236 0.35939544 -0.18807706 0.3102528 0.21641402 -0.439797 -0.21964389 -0.053581126 -0.47723946 0.037862543 0.13237442 0.59864616 -0.21655172 0.11682102 0.08051979 0.30934605 -0.013629818 0.111446664 0.28987056 -0.06388161 -0.517021 -0.2892578 -0.33577436 0.13937029 -0.11153094 -0.09799315 0.009386525 0.12575923 0.17927402 -0.31070235 0.3406232 -0.19086199 0.06018634 -0.4933058 0.13664772 0.45395845 -0.30504113 -0.45001972 -0.04276577 0.12656057 -0.121553294 0.27001062 0.08680097 -0.009768188 -0.24376595 0.07228896 -0.28962362 0.32426006 0.7374797 0.039751567 -0.39657742 -0.33165228 0.14262173 -0.22188683 -0.052738823 0.3241583 -0.0028584371 0.18789043 0.038969796 0.13445994 0.22511816
hsa-miR-519a-3p 0.38527453 -0.1326049 0.1543481 0.012572528 0.17935891 -0.12841067 0.23443621 0.16064303 -0.36421654 -0.21366411 -0.05492681 -0.3664193 0.20814101 0.21076529 0.28558442 -0.20905142 0.12866713 0.13257425 0.19147108 -0.037899017 0.13646452 0.076109186 0.075940385 -0.28962526 -0.45758268 -0.19830696 0.021930201 0.15876052 -0.12004096 0.12862444 -0.1961479 0.15397336 -0.17108764 0.31437135 -0.21953994 0.133527 -0.5401169 0.14937243 0.16481018 -0.12382672 -0.16819891 0.06810272 -0.03516296 0.35635892 0.16697192 0.031709597 -0.1346726 -0.053276394 -0.12832035 -0.16221288 0.21118633 0.41374856 0.07026239 0.043292634 -0.2138938 0.20934063 -0.16763762 -0.072110705 0.18354392 -0.2739301 0.11081378 -0.18632044 0.018895403 0.4616665
hsa-miR-638 0.12200588 -0.3402866 -0.19054703 0.2957171 0.0020204892 0.21206447 -0.072599776 -0.30470732 -0.17480049 0.2686958 -0.002516236 -0.14658096 0.119594246 0.04149042 0.16141613 0.37430495 0.14192727 0.13932012 -0.31003615 -0.28055656 -0.018610409 0.32866916 -0.09933145 0.055482857 -0.12717962 -0.2420117 0.098225996 0.40352353 -0.04187287 0.11742874 -0.08233367 -0.13739854 -0.23924832 0.008057917 0.26651788 0.1562164 0.04520502 0.31313527 0.023471026 -0.060876384 0.12993065 -0.12352844 -0.0064134332 -0.08843412 0.056683853 -0.06893813 0.030805824 -0.23359394 0.13396819 0.25811088 -0.06273243 -0.18073453 0.60125166 -0.20226417 -0.38900766 0.09007504 0.3012537 0.2624805 -0.10393011 -0.08594503 -0.2316578 0.09934261 -0.22305626 0.19177362
5394 0.16296957 -0.1779612 0.12698625 0.2452677 -0.22140494 -0.10518999 -0.07637554 -0.27156168 0.015609813 0.010485522 0.14385961 -0.20174713 -0.21950617 0.032425296 0.36184812 -0.42809752 -0.018358007 0.44985092 -0.043923035 -0.24276783 0.057860464 -0.3855982 0.44874978 -0.1459354 -0.2948619 -0.034488413 -0.13177449 -0.10082801 -0.09626404 -0.07743397 -0.10451657 -0.07421573 -0.40401328 0.33269736 0.34007803 0.10958095 -0.07704539 -0.29725727 -0.14590646 0.16170608 0.061561283 -0.0033006973 -0.08945552 -0.32346958 -0.07632295 -0.038917538 0.29105845 -0.049240574 0.40389574 -0.15464622 0.020718854 -0.13815892 -0.07127954 0.11318504 0.070869066 0.43435544 -0.002924967 0.38886973 0.12372603 -0.39389312 0.4394212 -0.025305461 -0.23676313 -0.19825742
hsa-miR-181b-5p 0.104728766 -0.047075517 0.14296906 -0.030330412 -0.2514967 -0.08984012 -0.18653601 0.17585754 0.048904978 -0.31446496 0.019271892 -0.09151183 -0.08584821 -0.15049417 0.31860957 -0.20361556 0.06322796 0.22747077 -0.4179338 0.090672836 0.044288173 -0.015757682 0.03228473 0.046243843 0.116054446 0.09268935 -0.2231088 0.027805476 -0.059138797 0.13328116 -0.14993931 0.2279899 -0.27035168 -0.022407962 0.036317524 0.044911597 -0.3362719 -0.088302046 0.020877212 0.31612793 -0.20636816 -0.035471436 0.022843119 -0.23819378 0.17305027 -0.014871535 -0.31833407 0.31398287 -0.04454624 0.16484362 -0.204113 -0.030114083 0.095507875 -0.21701436 -0.08619482 0.22487105 -0.074533075 0.051886648 0.21281481 -0.015232511 0.3491041 0.006977107 -0.2792859 0.15175784
5994 -0.14631547 -0.37107998 0.37725616 -0.13192064 0.1033273 -0.16763836 -0.0007387848 0.27442563 0.045104425 0.0011635432 -0.10371254 -0.62757903 -0.2536035 -0.15727834 0.55277586 0.15012436 0.5098195 -0.3289138 -0.26795214 0.3221397 -0.21343589 -0.053087514 -0.10093154 0.16373059 -0.101799875 -0.96817034 -0.3901641 0.22519603 0.1492894 -0.16251294 -0.21901545 -0.0005680133 0.18273462 0.15103959 -0.26443833 0.15554461 0.07043303 -0.23524264 -0.13352782 -0.20241672 -0.060515974 -0.2324305 0.22055629 0.074529804 -0.0037810216 0.16927336 -0.07716294 -0.096218534 0.11025117 0.17751573 -0.05537093 0.18622588 0.36704072 -0.43830925 0.25658804 0.48687834 0.123752706 0.09758667 -0.30802405 -0.1623145 -0.037924547 0.1291431 0.21286875 -0.18389389
hsa-miR-454-5p -0.1753127 -0.35557336 0.48281687 0.15673657 0.10231595 0.10715892 0.10113218 0.18805654 -0.09860863 -0.06633404 -0.105688885 -0.5907458 -0.4495942 -0.092282616 0.2536341 0.19647832 -0.24826083 -0.24594483 -0.0886284 0.15749724 -0.2062906 0.021921894 0.04928539 0.19167936 -0.16410883 -0.5993919 -0.014074653 -0.22517398 0.061457254 -0.057882126 -0.23467124 0.024719205 -0.22697501 0.43549442 -0.114775896 -0.03137661 -0.12296837 -0.11647646 0.040252518 -0.3920994 -0.16262567 -0.41735765 0.041674003 0.47269258 0.030465344 0.2237482 -0.13877074 0.22320509 0.24401534 0.270418 -0.06495865 0.26605716 0.223399 -0.17898966 0.44651103 0.5892836 0.06142102 0.09382697 -0.32086897 -0.13163292 -0.16487958 0.109576635 0.35420993 -0.14889656
13089 0.38008952 -0.31128153 0.047614753 0.28776875 -0.09140407 -0.02980645 0.026464995 0.29187825 -0.18260475 0.3934492 0.21891087 0.022605773 0.51905096 0.12920634 0.07943846 0.6570224 0.1643513 0.5130284 -0.09634828 -0.30675566 0.32825887 0.8488434 0.055985395 -0.1389867 -0.220755 -0.6239986 -0.35904938 0.05337059 -0.223787 0.39330262 -0.125436 -0.37634555 -0.19213225 -0.1560257 0.22107184 -0.24155138 -0.035109483 0.25607553 -0.06491595 0.07964918 0.064855225 -0.23658213 0.30917773 0.111868925 -0.023800697 -0.13010281 -0.04372501 -0.1758337 0.25652838 0.48346525 -0.00045287082 -0.39751747 0.32162374 -0.51385444 -0.2392072 0.23870692 0.027354436 0.2722272 0.1388057 -0.32534072 0.08593218 -0.0045049996 -0.33562708 0.11303299
hsa-miR-33a-5p 0.005800565 0.034924198 0.12502886 0.45422402 -0.27268565 0.39010474 0.18471983 -0.21222135 -0.19834569 0.35245603 -0.10208468 -0.5091358 0.19041139 0.32500848 -0.17049637 0.062421862 0.02253148 -0.4105834 -0.06006743 0.13857567 0.2355776 0.062369876 -0.3168391 -0.26753432 -0.056194328 -0.044185806 0.003693579 0.26714316 -0.1759581 -0.06786635 -0.37957707 0.118502386 -0.4297503 0.114781275 0.1559171 -0.000953565 -0.077926874 0.3118353 0.061806563 0.14960185 -0.04748259 -0.25629684 -0.13827874 -0.55148727 0.21253647 0.092855275 0.25815597 0.020038078 0.15289544 0.32380995 -0.20186901 0.037907973 0.4564719 0.30960992 0.50402933 0.40449882 0.18771501 0.15048112 0.24684854 0.59637165 0.12389804 0.012033475 -0.044842582 0.093590185
hsa-miR-885-3p -0.12902647 -0.09459985 -0.15915033 0.23313953 -0.023700837 0.26308015 0.09344944 0.2786072 -0.097564586 -0.29529002 -0.26856261 -0.19928643 -0.22067608 -0.020150853 0.055917315 0.29325965 -0.33889642 0.12345978 -0.10594059 0.022115553 0.03508428 -0.1473294 0.25708175 -0.030823428 -0.057468217 -0.043908153 0.1546382 0.18920186 0.12973192 -0.2552079 -0.22808063 0.33610258 -0.050317284 0.13375731 0.038649265 -0.14759022 -0.31755143 -0.02231389 0.14780632 -0.26195315 -0.11552835 -0.45686063 0.14616624 0.15456146 0.25156945 0.0052085402 0.074024074 0.08857957 0.20314984 0.16415346 0.06922984 0.026346782 0.12771522 -0.13604766 -0.0763927 0.23831977 0.12879659 0.062440798 0.072915405 0.06144021 -0.12390879 -0.011315341 0.14099708 -0.062643744
37542 -0.08541029 0.07118263 0.39213 -0.2658358 -0.63588786 -0.13849622 0.017399115 0.08731303 0.047569048 -0.10614657 0.3920092 -0.21655366 0.0990506 0.3233707 0.094909966 -0.26175597 -0.03102467 -0.4792414 0.6936879 -0.37068906 0.09351524 -0.07399741 -0.13261968 -0.15865384 -0.095697634 -0.44518435 0.13595355 0.22598751 -0.15151535 -0.1639527 -0.015407543 0.007995149 -0.20144036 -0.29556313 0.4949329 -0.25386077 -0.5227186 0.008484589 -0.06963748 -0.19672433 0.103215665 -0.5984953 0.6200997 0.28621194 -0.105656564 0.48575035 0.10368706 0.17112987 0.12970392 -0.3132636 -0.09344411 -0.45820984 0.051977325 -0.22074758 -0.021800147 0.6969624 0.029095262 0.072447225 -0.10126185 -0.10296882 -0.17324848 0.21905643 -0.971082 0.5851143
hsa-miR-652-3p -0.10792232 0.124532126 0.08384128 -0.025933815 -0.12735477 -0.22327687 0.12916629 0.20390555 -0.028655356 0.06679785 0.09813705 -0.43636265 -0.14861947 0.017788086 -0.27300483 -0.2514415 0.04438055 -0.2737068 0.1207086 -0.15238146 0.13137636 -0.030351376 0.10310865 0.08145154 0.13702288 -0.22120328 0.26007873 0.22109719 -0.26692894 -0.28570348 -0.04513438 -0.13692087 -0.18761201 -0.37666374 0.39934555 -0.07147559 -0.2694323 0.14521766 -0.23818532 -0.056889236 -0.11145957 -0.36817178 0.1706011 0.21620117 -0.012802199 0.40945563 0.059824258 0.20889294 0.16624609 -0.1261092 -0.14232816 -0.12845072 0.11349172 -0.0753475 0.041525256 0.47870106 -0.072078034 0.07516377 0.2861643 0.010228622 -0.15268075 0.058843754 -0.63451827 0.26125693
36462 -0.48331323 -0.05517967 -0.05892054 0.24970485 0.045174032 -0.10744543 -0.16294537 0.18236281 -0.0786001 0.022996511 0.21918045 -0.04355319 0.088258386 -0.1210289 0.11313498 0.1515797 0.08017683 -0.08990194 -0.06460677 0.1403259 -0.16215605 0.08894896 -0.08717421 -0.24229352 -0.16876805 -0.14669372 -0.15841296 0.46248364 -0.1824491 -0.07209083 0.3089773 0.03461646 -0.15123466 0.32447293 0.33457068 0.087055296 -0.40385905 0.07726299 0.3176122 0.10744281 0.2907874 -0.13983874 0.050456814 -0.08641468 -0.062014308 -0.31631523 -0.014343346 -0.13180484 0.31013379 -0.01922224 -0.034332182 0.12114508 0.31995833 -0.39317894 -0.2700133 0.21661288 -0.19141603 0.34718055 0.15452619 -0.36061373 -0.047437485 -0.10152142 0.10219879 0.11567773
hsa-miR-518f-3p 0.15073392 0.11645343 -0.07235542 -0.16054596 0.19223817 -0.023157556 0.29149756 0.11173481 -0.52914166 -0.2716517 0.0693147 0.037494913 0.055174615 -0.12691359 0.42408726 0.13800392 -0.14582656 -0.061746825 -0.14002557 0.16762497 0.016548628 0.22099641 0.0389476 -0.07757412 -0.5330401 -0.41847494 0.12825388 0.091613695 0.028224763 -0.028392233 0.14900252 0.40277758 -0.17492242 0.56161153 0.14348304 0.19815204 -0.55645466 0.44315106 0.47210613 -0.038163617 -0.38526344 0.11976529 0.23999147 -0.127796 0.0728043 -0.14969008 0.043289542 -0.16109556 0.30124265 0.014341811 0.14041236 0.30723393 0.03374108 -0.17728376 -0.21341847 0.30720454 -0.23746724 0.08416968 0.08560348 -0.019262606 -0.08543226 -0.20808415 0.030780297 0.26132473
446220 -0.121484555 -0.4911348 -0.030336257 -0.44971907 0.088287145 0.094171815 0.070905685 0.25319958 0.22419149 -0.036451437 0.07771312 -0.26656047 -0.20721191 0.102665626 0.08579163 0.3914547 0.054691926 0.33819035 0.3842549 -0.42040086 -0.19836032 0.042443793 0.48089194 -0.052798796 0.11740446 -0.40103853 -0.63075376 0.26271883 -0.010759671 0.26052317 -0.12140807 -0.12593639 -0.30570766 -0.19411877 -0.19035612 -0.32954904 0.02687303 -0.2471464 0.66311055 0.5157839 -0.051638335 -0.20482582 0.5059626 -0.38264737 -0.18018664 -0.26003242 0.56327844 0.057257894 0.15555327 -0.0041618473 -0.10508569 0.11598274 0.37203562 -0.29665098 0.5223967 0.034891885 -0.124027714 0.5220858 0.27372077 0.05692872 -0.21437696 0.032741636 -0.41013172 0.20530148
hsa-miR-124-3p -0.28345668 -0.13338692 -0.1314781 -0.4924587 0.16503388 0.028572142 0.15436204 0.19461489 -0.06607275 -0.1557821 0.087696664 -0.22862314 -0.25974473 -0.058787428 0.36247557 -0.08788284 -0.09017469 0.19887564 0.71473014 -0.7121616 -0.24288411 0.22980472 0.33058727 0.092650235 0.4550407 -0.18124592 -0.4641209 0.5396529 -0.17620912 -0.09152856 0.14442217 -0.018336046 -0.70069015 0.27246377 0.15407613 -0.08575664 -0.10427586 0.20886697 0.35348246 0.14126445 0.3930676 -0.79978496 0.35952905 -0.068685144 -0.040319793 -0.04463083 0.45249298 0.124834046 0.046058774 0.053494196 -0.41782516 -0.011654155 0.12460618 -0.6138757 0.22405262 -0.09706549 -0.054822374 0.68398887 0.2671027 0.05251701 -0.011694481 0.0014145016 -0.2627275 0.24380963
135403648 -0.1217343 -0.03338212 0.10486714 0.31101856 0.121019565 -0.31590897 0.25223303 0.37654373 -0.016069114 0.10244675 -0.2140441 -0.4715168 -0.06609681 -0.10923748 -0.049314782 -0.2178443 0.22162858 -0.0898008 -0.00553147 0.024872225 -0.13338777 -0.102978624 0.14753444 0.15379447 0.34196764 -0.092124626 0.2591955 0.09741249 -0.29814687 -0.44549 -0.0715827 -0.27152517 -0.10882007 -0.13969311 0.14651163 -0.19494008 -0.24575089 0.12329986 -0.010141478 -0.070232235 0.008664932 -0.04312245 0.1721045 -0.016837316 0.029496133 0.17537612 0.0022039297 0.12683856 -0.06377866 0.025981383 -0.16745791 0.068860136 0.22779652 -0.22502668 -0.09424739 0.21030983 0.040298056 -0.21180758 0.41362283 -0.35868865 -0.13835886 0.06446186 -0.5431733 0.13584203
hsa-miR-30a-5p 0.25588864 0.16647352 0.19959237 0.077352315 -0.25472897 0.17354003 0.11841123 0.45160297 -0.11066924 0.06393891 -0.29893878 -0.2668964 -0.25369573 -0.017504599 0.15401489 -0.1400634 0.03109878 -0.15310784 -0.10725171 -0.018473154 -0.15868556 0.10573727 0.37679836 0.36405754 0.07401444 -0.014540506 0.008976253 0.03604412 0.029625347 -0.00457245 -0.05577782 -0.010223196 -0.2571272 -0.32606184 0.1999995 0.13424604 -0.43456894 -0.079963416 0.036121856 -0.14403455 0.14364071 -0.2750291 -0.0964273 -0.014446364 -0.040657736 0.015970279 -0.038887277 0.024409588 -0.032559644 0.12162851 0.038863085 0.09789929 0.18567966 0.22676682 -0.02601481 -0.1785629 -0.10742461 0.06875185 0.15788512 -0.3586809 0.18667279 -0.04678257 -0.50027364 -0.05057762
hsa-miR-125a-5p -0.10177608 -0.22897014 -0.039769683 0.08300436 -0.16645704 -0.15175256 0.08034126 0.035714574 0.052337 -0.21353748 -0.08108145 -0.13099487 -0.041486286 -0.16434947 0.2066809 -0.023053514 0.2402481 -0.047799528 -0.07739503 -0.002206325 0.21939504 0.025126722 0.36206114 -0.081003904 -0.2089725 -0.0720058 0.19782361 0.00082059385 0.062134884 0.08722188 -0.21583705 0.12055135 -0.09481526 0.05909007 -0.042905882 0.14176014 -0.32320538 0.032247245 -0.035183925 0.050422754 -0.09792819 -0.025973769 -0.028364364 -0.10135547 0.16040517 -0.027847318 0.027487934 0.060179997 -0.060792528 -0.13515463 -0.20347267 0.054736145 0.062055465 0.04628457 0.06918459 0.18008786 -0.14009649 0.036827333 0.13029723 -0.030500159 0.24288766 0.021500872 -0.0038019705 0.3832712
25227436 -0.24822277 0.75550425 0.4232139 0.5372022 -0.18712313 0.096835315 -0.20074162 -0.13120669 0.38436076 -0.37107787 0.23965994 -0.2616343 -0.33733532 -0.14762253 -0.0810482 0.6483803 0.39431536 -0.21341261 0.17548928 0.280881 -0.455658 0.28888965 -0.56474733 -0.13700125 -0.79888433 0.30026782 0.30819237 0.65197843 0.19931035 0.080428116 -0.07541529 0.9525596 -0.6669286 0.36070994 -0.03732453 -0.21141598 -0.40921548 -0.3545286 0.09217495 0.31183162 0.13809627 -0.1977989 -0.2718549 -0.09786133 -0.22861283 -0.6096387 -0.06773772 0.6518151 0.42876416 -0.76752967 0.09937018 0.31570858 0.24603717 -0.5334765 -0.1488258 -0.22505924 0.029688593 0.39650276 -0.25308838 0.14888987 0.5952005 0.49566674 -0.7734904 -0.55477613
hsa-miR-126-3p -0.05532173 0.2734988 0.20495501 0.26659477 0.05960991 0.15651877 -0.028898142 0.11699192 0.13874759 -0.25486556 0.21389714 -0.1818077 -0.02108149 0.077075936 0.028220382 0.3861871 0.25823954 0.026372433 0.055561032 0.05876545 -0.19429074 0.33933505 -0.40367678 0.18903989 -0.28214565 0.026501358 0.3141686 0.36593837 0.07328749 0.011495064 -0.33500797 0.32133177 -0.43198088 0.18777941 -0.21344195 -0.18214771 -0.09745188 -0.35465348 0.14142008 0.22293873 0.020390986 -0.138519 -0.1328812 -0.3489473 -0.11571738 0.01495466 -0.24879058 0.52806115 0.28885564 -0.30869704 0.12175208 -0.09069709 0.10912017 -0.29900554 -0.14583127 -0.006217968 0.1307753 0.09917143 0.3045254 0.084767774 0.3806435 0.21508871 -0.23164989 -0.15801913
444732 0.28096014 -0.28617042 -0.1079562 0.47469944 0.10095089 0.18707812 0.069199555 -0.13596377 0.20551825 -0.27699795 -0.07888582 -0.1896566 -0.18054312 -0.5352255 0.023698833 -0.071745776 0.019146256 0.15117922 -0.123221636 0.5142206 0.14368461 0.13873234 0.05462215 -0.28057545 0.27715808 -0.18812121 -0.3105506 -0.079223245 0.116796985 -0.054056004 -0.5014129 0.16791545 0.060484383 0.123295344 0.07629138 0.00965847 0.14715305 -0.2636922 0.23097508 -0.026324755 0.17142802 0.09865503 0.28317973 -0.051063444 -0.058475796 -0.0063136634 -0.24009582 0.49612916 0.28071538 0.06289972 0.15481758 0.16482191 -0.027721507 -0.054931037 -0.24118017 0.19461097 -0.12377631 0.28458947 0.38759848 -0.13848422 -0.10527514 0.17237404 -0.43107924 0.0102464175
24180719 0.024811862 0.12667763 0.35461834 -0.019949973 0.37919772 -0.512988 -0.22590274 0.1961428 -0.03577146 -0.5384496 -0.48513082 -0.45304966 -0.010480457 0.046608277 -0.084257215 0.041410986 0.02689257 -0.3156149 -0.16314188 -0.40719777 -0.19429578 0.01450439 0.09137805 -0.24242716 0.05976502 -0.18959706 -0.2044109 0.20943142 -0.12663507 0.22474767 -0.23089467 -0.2744123 -0.38411635 -0.13652192 0.36609045 -0.29677033 -0.1770642 -0.13143037 0.33283085 0.2615621 0.25900564 0.25743562 0.016893001 -0.17369632 0.07638546 -0.09621287 0.1977429 -0.14188948 0.3789378 0.34997067 0.486886 0.00126803 -0.25352478 0.3059909 -0.316374 0.28744856 -0.00396282 0.079225235 0.03576782 0.11001367 0.16615085 0.23160096 -0.1069414 0.38932538
hsa-miR-27b-3p -0.051325087 -0.38923824 0.3168307 -0.1651493 -0.071848944 0.039828163 0.15562534 0.12493003 0.06974107 -0.11364544 0.3214769 -0.0116274785 0.30961356 0.3235149 -0.08422635 0.36997473 0.05896488 -0.043412287 0.14377065 -0.42365545 0.016084366 0.34983033 0.2126017 -0.21337481 0.0013067031 -0.4765782 0.008019292 0.30384412 -0.23976 0.106458336 -0.14235342 -0.1500744 -0.26444033 -0.25868583 0.30257267 -0.3713592 -0.16883211 0.033287216 0.14145873 0.077106535 -0.01908802 -0.2058389 0.42375934 0.094856195 -0.09339793 -0.28913498 0.16376224 0.10415193 0.10728498 -0.14152169 0.23139158 -0.14728503 0.07480747 -0.2738236 0.02934164 0.3846797 0.117066026 -0.03125622 0.05098209 -0.005199941 0.0033177412 0.124856696 -0.34161648 0.2750638
5746 0.14539863 -0.59880364 0.27183247 0.21108463 -0.040279135 0.2121143 0.1297591 -0.24141976 -0.09957615 -0.09151397 -0.22761175 -0.381855 0.48161665 0.10087958 0.3517961 0.27968276 0.2630268 0.00759275 -0.09440425 -0.072286546 0.13932338 -0.18630742 0.39460823 -0.044279438 0.34596 -0.11632315 0.17989814 0.36159056 -0.10092959 -0.31746683 0.120143294 0.016650109 -0.2317815 -0.22309646 -0.39864984 0.0007062679 -0.01958893 -0.12986532 0.103166156 0.11459799 0.052181564 -0.03136416 0.07643565 0.20099628 0.26863885 -0.276581 0.47399962 -0.042514686 -0.1869176 -0.07989422 -0.113109924 -0.0059799305 -0.16231221 -0.06061779 -0.24973032 0.4243822 -0.07048253 -0.11708836 0.026043931 -0.038481034 0.39595044 0.3296363 -0.24661097 -0.35065788
hsa-miR-181a-5p 0.36093554 0.10401151 0.2706127 0.13225083 -0.1371976 -0.120836474 0.045040056 -0.008290327 -0.11760425 -0.29477972 0.20794737 -0.13810919 -0.37529618 -0.06641997 0.4806242 0.18865086 0.070367314 0.16168903 -0.04988183 0.20617476 -0.19501902 0.14637533 0.39889926 0.103694 -0.014631062 -0.02788025 0.091838814 -0.22027677 -0.08188176 -0.012634501 -0.050746903 0.20212439 -0.17138572 -0.3418952 -0.10694435 0.20123062 -0.15380546 -0.42038932 -0.10793218 0.23444654 -0.043263048 -0.17288245 0.09177362 -0.19712976 0.05556177 0.08467537 0.2531018 0.1854129 -0.17390658 0.026673544 -0.17709163 0.039877538 0.10117966 -0.17087062 -0.29915476 0.21991675 -0.090114586 0.06264543 0.21428494 -0.08224858 0.29213595 0.027592883 -0.2815385 -0.092736594
10635 0.09812326 -0.4857025 0.3845048 0.23530278 0.16524176 0.4280011 0.09037068 -0.042037435 -0.22667138 0.09040171 0.08241461 -0.17834704 -0.25312832 0.13061786 0.27125877 0.3176412 -0.19208859 0.13599354 -0.8378453 0.0053060846 0.17243384 0.0557925 -0.2166908 0.19952057 -0.23786834 -0.17806195 -0.031624977 0.17372283 0.26215795 -0.5395149 -0.22496848 -0.17431107 -0.058470145 -0.06972147 -0.04814084 0.34267846 0.25034246 -0.081367835 0.036049318 0.4080415 0.40182614 -0.11220791 0.32179618 0.08781271 -0.63006026 -0.35495415 0.045380313 0.14665796 -0.00063183944 0.30922565 -0.07183987 -0.038753353 0.12444523 -0.24496762 -0.63009024 0.26304263 0.3379904 -0.059301905 0.32402027 -0.36003757 -0.10073999 -0.0064806016 -0.046585668 0.66531
hsa-miR-32-5p 0.14437756 -0.31970936 0.44281298 -0.25546056 0.12369906 0.02367345 -0.1889669 0.27548426 0.030786974 0.015939815 0.030849548 -0.33740798 -0.31053957 -0.1275724 -0.06978708 0.09746052 -0.022308039 -0.013548208 -0.4967381 0.26985323 0.045035448 -0.13044828 0.11870132 0.024235059 -0.089645594 -0.19735484 0.25717252 0.25957796 -0.03614177 -0.23037209 -0.21665779 -0.08285871 0.030927278 -0.04015657 -0.32010764 -0.10532552 0.10148307 0.049029686 -0.046433773 0.07602992 -0.058779094 -0.21658601 0.042645503 -0.16599487 -0.08415019 0.225738 -0.1618546 0.26257008 -0.015011237 -0.06369017 -0.09637565 0.12621343 0.11417563 -0.29475665 -0.15334502 0.015712034 0.18743058 0.16750358 0.26239717 -0.1825185 0.29552388 -0.021808524 -0.16775216 0.39354855
hsa-miR-4711-3p -0.25304225 -0.11146013 0.22891997 0.23535906 -0.16711155 -0.35082448 0.3672625 -0.031649515 -0.05604206 0.046658296 -0.2557007 -0.2265191 -0.05066552 -0.2224478 -0.027664665 -0.0745803 -0.0022426187 0.0027026108 -0.23944205 0.089322306 -0.08990965 0.2177892 -0.15131015 -0.21852835 -0.36628738 -0.5382152 0.23885606 -0.10129435 -0.08044989 0.07853974 -0.07879943 0.04274031 -0.18856792 -0.09532791 0.18553816 0.2345356 -0.15867212 0.18641236 0.20099384 0.041494165 -0.18779773 -0.24282812 -0.17720385 0.04430873 0.09195416 -0.12355863 -0.033820283 0.23544337 -0.0126010785 0.20369604 -0.1464139 0.38769767 0.012490781 0.3706648 0.06932029 0.027788443 -0.057032913 0.33570284 -0.23047836 -0.30976614 -0.002410735 0.2993376 -0.059199758 0.1826463
hsa-miR-320a-3p -0.26490104 3.7481692e-05 -0.031232774 -0.11787817 -0.041100945 -0.07435987 0.033458047 -0.23786053 0.10299691 -0.16515692 0.26584554 -0.49544808 0.32818186 -0.12835623 -0.23911436 0.123393536 0.027131181 -0.33176824 0.033013787 0.16486284 -0.1702623 0.15956916 0.03330373 -0.15613149 -0.05203584 -0.021360666 0.19237348 -0.008378359 0.22761065 0.039474126 -0.075549684 -0.2692465 -0.2950107 0.16949882 0.08227098 0.05309821 -0.27659053 -0.20702028 0.31746688 0.25115722 -0.05516954 -0.26345983 0.20668274 0.025165603 0.2549677 -0.014977801 0.053328943 -0.04445634 0.03058352 0.06342496 0.6381844 -0.09284961 0.41608417 0.09380863 -0.09383727 0.06601306 -0.08417862 0.39122358 -0.032043785 -0.27078488 -0.12227925 0.1344168 -0.17785689 0.26148242
hsa-miR-199a-5p 0.26184377 -0.04447152 0.04971471 0.24092294 0.0814996 -0.22075321 0.3747081 0.18569413 0.21814157 -0.2200809 -0.09106927 -0.085018076 -0.030098328 0.082155325 0.34504896 -0.089011215 -0.04901604 0.08808982 0.25561178 0.11309154 0.27756128 0.0680978 0.0048971376 -0.008059387 0.2877124 -0.17674571 0.26451007 -0.017552638 0.18822648 -0.4361943 -0.1537477 0.03722619 -0.046875343 0.12097237 -0.1338079 0.008311478 -0.3954221 -0.09001156 0.23312911 -0.3021811 -0.21469158 0.11534126 0.12338099 -0.2034316 -0.098982506 0.13512775 -0.27650094 0.10181803 0.37436217 0.025655722 0.19925092 0.5073666 0.15606761 -0.010268899 -0.011536485 0.096278235 -0.21019304 0.23723312 0.11971631 0.06503631 0.039760914 -0.07076883 -0.35608113 0.39421389
38904 -0.24604042 -0.527872 0.15717427 0.10069032 0.12676547 -0.02404855 0.33197695 -0.04830275 0.10695662 -0.12207604 -0.14461878 -0.10446576 0.33697304 0.3188819 0.41864893 0.32766867 0.24431372 -0.116603665 0.028553795 0.37821898 0.15729824 -0.05982773 0.7344266 -0.09610029 -0.046569772 0.07836991 0.017749606 0.43237162 -0.18635836 -0.20446457 0.14613974 0.15397766 -0.36642492 -0.2484136 -0.18701059 -0.010559473 0.068555735 -0.018766297 0.1184974 0.111076646 0.0016364878 -0.05151607 0.4304003 0.28353173 0.025972446 0.114760764 0.30525726 0.102287985 -0.13829128 0.23065452 0.0016891798 0.19019295 -0.026901823 -0.12068275 -0.13351953 0.072090805 -0.29228202 0.07489224 -0.105553664 -0.058207665 0.29827785 0.37859857 -0.25074995 -0.3528765
24497 -0.036244035 -0.40388933 0.2229345 0.3114815 -0.31344545 -0.41179585 -0.06277203 -0.20848143 -0.43065333 -0.25933024 -0.18196534 -0.081235945 0.30410036 0.011641373 0.43866915 -0.5638761 0.13958773 0.0545659 -0.14086385 0.17124441 0.05032115 -0.017611975 0.1307305 0.17805214 0.2484054 -0.3742425 0.5574013 -0.080890276 0.324329 -0.010114154 0.23324072 0.23012708 -0.43284842 -0.26460975 -0.13123366 0.041770175 -0.083523266 -0.43760887 0.4129323 -0.57014805 0.2325938 -0.42148036 0.31178004 -0.02388687 -0.18595822 -0.3951679 0.19536944 -0.08152233 0.29679418 -0.32487836 0.15387267 -0.8686745 0.27790552 0.05211774 -0.23058729 -0.35044387 -0.07193882 0.5052186 0.15123697 -0.010946114 0.047947925 0.22976619 0.16191024 0.02252174
hsa-miR-93-5p -0.1444297 -0.08713552 0.09475027 0.30494514 -0.14824413 -0.072465904 -0.31987625 0.058734972 -0.18121469 -0.0063776746 0.29393578 -0.3649234 0.05096502 -0.14528921 0.20032194 -0.31454605 -0.092646785 0.09665298 -0.06302352 -0.031101655 -0.037174057 -0.13152288 0.40946302 0.02086084 0.17114177 -0.13489896 0.046881665 0.14425832 0.09097524 0.13187547 0.043584276 0.010580098 -0.46728015 -0.052429233 0.25583628 0.6801865 -0.05102828 -0.1802257 0.44870055 -0.14714746 -0.10324491 -0.38229552 -0.07085963 -0.12827425 -0.07578305 -0.0003567988 0.060170744 0.012458744 0.46448964 -0.262393 0.23923525 -0.25510323 0.12623872 -0.26174638 -0.08145098 -0.023292152 -0.18246569 0.13292193 0.22573572 -0.007984853 0.21068373 -0.13465294 0.23213832 -0.08398646
hsa-miR-216a-5p 0.036435857 0.024304418 0.0599997 0.12643473 -0.22446084 -0.44948912 -0.09999189 -0.27042148 -0.123092495 -0.04931994 -0.2634443 -0.4253576 -0.018460771 -0.4765909 0.11901831 -0.0013600785 -0.01822545 -0.103515 -0.036496222 -0.11426551 0.21340053 0.34645018 0.26954547 0.11371258 -0.20095105 -0.1855269 0.20436127 -0.030262545 0.09643557 0.15279676 -0.018673677 -0.19518103 -0.2863375 -0.14505526 0.21117602 0.09816892 -0.31350648 0.2100613 -0.34401262 -0.18460944 -0.58432233 -0.4637048 -0.10455102 0.07643914 0.10221239 -0.024170144 -0.059282612 0.347811 -0.05764878 -0.2519551 0.023289941 0.24908446 -0.21339469 0.10310754 0.059168264 0.065970935 -0.3297075 0.23588084 0.4886724 0.09751779 0.1409153 -0.0886942 -0.068816654 0.13300128
hsa-miR-19b-3p -0.20370594 -0.065135315 0.045828756 0.25833744 0.11350751 -0.26596388 0.37060884 0.36945575 0.013354678 -0.27006996 0.16168973 -0.10358333 -0.008039074 -0.024223052 0.21091306 0.12495421 0.13394259 -0.13523063 0.26314396 0.056508165 -0.08991569 -0.19604766 -0.15951782 0.23103552 0.08943281 -0.50094724 -0.019062117 0.303295 -0.124755904 -0.47517693 -0.22455554 0.19455345 -0.21530727 0.030199444 0.05338183 0.3962967 -0.10018939 0.10713893 -0.29666165 -0.07812755 -0.1689746 0.036989044 -0.070049815 -0.3307304 -0.34198463 -0.10513052 -0.20922418 -0.15304925 0.2229822 0.18544699 0.05401624 0.27741396 0.30758125 -0.14982747 -0.10167732 0.089905456 -0.2660935 0.1736065 -0.048496693 -0.15732597 -0.07704951 -0.15310045 -0.21872906 0.29130012
hsa-let-7f-5p 0.5051236 -0.22096512 -0.08496743 0.17500968 0.07238249 -0.24272032 0.33806363 0.039629288 0.18207733 0.05235264 0.2635804 -0.36455762 0.31737882 -0.057462532 -0.34211227 -0.054511756 0.23588325 0.033001855 0.057186875 0.23565511 0.008338354 0.05383614 0.26611334 0.21107468 -0.043590628 -0.30071422 -0.04908409 0.2794366 0.28646594 0.09262646 -0.14012651 0.123768374 -0.009720277 0.06567918 0.3888244 0.026931902 -0.15568376 0.11017843 -0.17917806 0.061602224 0.11645099 -0.34020114 -0.16239941 -0.25605124 -0.06440444 -0.07717118 0.5253552 0.21026325 -0.016366709 0.079634115 0.33187813 -0.17666161 0.21858232 -0.029443726 -0.40929157 0.14406891 0.15650268 0.2742397 -0.23300454 -0.21016788 0.14826538 -0.11520501 0.022084136 0.1501926
hsa-miR-3187-3p -0.28577527 -0.0024538152 0.38943136 0.32157123 0.38532367 -0.44269568 -0.07336142 -0.10259123 -0.23651798 -0.51672345 -0.45648187 -0.41908112 -0.21121567 -0.03090819 -0.05908949 -0.0433128 -0.046155244 -0.288371 -0.21885966 -0.03584435 -0.19272527 0.27935168 0.061489247 -0.073685795 0.036541224 -0.43704692 -0.06410468 0.0405221 -0.11085484 0.33872804 -0.37917033 -0.12456046 -0.42051923 -0.10090421 0.54258364 -0.32582292 0.096705146 0.08511487 0.16321914 0.35632885 0.26849163 -0.06022581 -0.15779541 0.14458847 0.33061203 0.0010091293 0.21625689 0.040959183 0.11630722 0.13250463 0.39325806 0.08658957 -0.13366297 0.34836417 0.025092425 0.1681072 0.024009125 -0.0055062664 -0.2055678 0.02610293 0.16012855 0.17094971 -0.011756537 0.57716644
3229 0.104478925 0.14012595 0.016703146 0.19160767 -0.39624333 -0.008526488 -0.004418817 0.17340964 -0.23367263 0.11032108 -0.07175523 -0.27663872 -0.24643825 0.33728755 0.75244296 -0.42314506 0.15543635 -0.19536692 -0.062063172 0.16345035 -0.17464194 -0.003442897 0.21820168 0.45371825 0.15250444 -0.018816238 -0.41910407 0.44996995 0.119858794 0.18147616 0.032940663 -0.11971126 -0.2867533 0.13911572 0.29784453 -0.38791093 -0.27915087 0.019264072 0.2875975 -0.13574426 0.07869192 -0.1253583 -0.010751054 0.0067552435 -0.015438786 0.07883052 0.2675932 0.2279398 -0.19210458 0.10892242 -0.26887834 0.023754228 0.34615847 -0.14586903 0.24416849 -0.17200883 0.020074494 0.0855895 0.4493068 -0.14826345 0.013893094 0.3263558 -0.26381102 0.2679648
hsa-miR-31-5p 0.039592236 0.14849995 0.084795676 0.17790717 -0.21655598 -0.048720114 0.040579766 0.13714264 -0.1194112 -0.1818626 0.04294785 0.18364805 0.054009993 -0.23939484 0.47646558 -0.61348957 0.11943461 -0.053810675 -0.34148622 0.16971947 0.10087274 0.064495414 0.110495456 0.0056677754 0.06758724 -0.15761337 0.09220024 0.048265047 0.21046248 0.04541425 -0.27076638 0.10137623 -0.5868778 -0.022998545 -0.18389364 -0.11472237 -0.2723905 -0.47211814 0.0682377 -0.33984473 0.06323685 -0.23915191 0.1790686 0.10825306 -0.12861215 -0.12392501 -0.014895427 0.27439433 0.0663478 -0.1570732 -0.11991167 -0.24205515 0.32972094 -0.03072262 -0.1303247 -0.11045216 0.07795388 0.384102 0.21083677 0.32892263 0.07560372 0.2524476 0.030337894 0.15845932
5381226 -0.43505743 0.3139508 0.32069963 0.42661214 -0.42591774 -0.39360663 0.95540804 -0.1956125 0.42199847 0.6372013 0.43441755 -0.6357269 0.39508045 -0.24555914 -0.33498144 0.34681672 0.022682207 0.16217586 -0.17058942 -0.1552329 0.25857243 0.34798792 0.5912758 0.49118844 -0.37338695 -0.12234679 -0.1072244 0.32809633 -0.14522624 0.2292675 -1.0867453 -0.32045984 -0.81524485 0.4643197 -0.24203591 0.24919884 0.08837974 -0.030956578 0.56010574 -0.088813685 -0.031568326 -0.15491803 0.113250084 0.66667265 0.21385881 -0.26524666 -0.4771416 0.4657146 0.41303587 -0.33184794 -0.5894711 0.8466599 -0.3534937 -0.2632641 -0.45121083 -0.12054974 0.20649968 0.50629014 0.4655012 0.9866376 -0.33120596 -0.27619168 0.19561784 -0.27665335
hsa-miR-379-5p -0.32707068 0.18129878 0.11634203 0.3933037 -0.1815575 -0.30345598 0.76059 0.04515971 0.36409926 0.35988024 0.39707172 -0.4986208 0.21650222 -0.37268502 -0.23248084 0.083834045 0.18157937 0.25203127 -0.091997206 -0.20091428 -0.028775614 0.37131026 0.33964422 0.38975316 -0.09390317 -0.043004006 -0.050410606 0.2112418 0.0031789176 0.08935893 -0.44348556 -0.17086925 -0.63839835 0.15194899 -0.09397925 0.13914433 0.016418137 -0.17433058 0.21102405 0.039171085 -0.060593724 -0.26069847 0.06487148 0.33992475 0.20275806 -0.1458295 -0.09545851 0.2619297 0.19829533 -0.2593663 -0.2152941 0.6018952 -0.21639338 -0.07059311 -0.24316165 0.12825708 0.00446363 0.5182926 0.33737153 0.66769975 -0.11775444 -0.11663723 0.23600408 -0.08960396
hsa-miR-196a-5p -0.13568112 -0.34045547 0.038205847 -0.10260539 -0.12561822 0.18985017 -0.0020214156 0.24926805 0.18361716 -0.36595044 -0.17085332 -0.52445906 0.11494957 -0.29534158 0.024134059 0.062460896 -0.07558143 0.21654849 -0.019851327 0.022623314 -0.051552806 0.063000046 0.15099645 0.3527396 -0.28971693 -0.013868096 -0.344893 0.26811698 0.12370197 0.13588203 -0.039049055 0.005806338 -0.36080813 -0.13201019 -0.22092184 -0.08831633 -0.35443774 0.101094455 0.09402521 -0.34731558 -0.038572334 -0.4051245 -0.09115077 -0.4082273 -0.08493924 -0.07298836 -0.30861986 -0.20756064 0.117951415 -0.24547973 -0.037859622 -0.2730306 0.071616635 0.4161235 0.08454442 0.14242952 -0.37280756 -0.155017 0.35807222 -0.094699286 0.45524657 -0.08775976 -0.31320965 0.025152206
9931953 -0.3865702 -0.5095882 -0.15231954 -0.018765058 0.007998681 0.022369454 0.005909323 0.63618577 -0.17641853 -0.07273159 -0.023972936 0.029215885 -0.2754186 0.5343119 0.13898008 -0.0964376 0.033951934 0.29319215 -0.109529264 0.10623552 0.43046105 0.2549076 -0.4220005 0.33911636 -0.3647799 0.49887627 -0.036329865 0.34663764 0.01333839 0.12276828 -0.62229633 0.030168891 -0.6234682 0.29210168 0.40132788 0.9891507 -0.32389256 -0.31407988 0.37680304 0.22983424 -0.09885202 -0.62249887 -0.0687404 0.1039299 0.48433262 0.14842427 0.2706907 -0.13832456 0.72342247 -0.29381177 0.32033962 -0.92051214 0.07572795 -0.49867296 0.08019039 0.28828835 0.4731121 -0.112915836 -0.21272722 -0.28059453 -0.16247366 -0.36337212 0.2891043 -0.11834979
hsa-miR-9-5p -0.08324388 -0.33381963 -0.060070712 0.14413697 0.18140717 -0.055105075 -0.10538443 0.31099638 -0.041302234 -0.122315675 0.05546182 -0.06162197 -0.20412251 0.37131935 0.15371211 -0.026933065 -0.027175857 0.26905262 0.051239334 0.10570885 0.13174939 0.171231 -0.23541524 0.2553556 -0.18991326 0.24346982 0.12100343 0.33963305 -0.046681605 -0.13334045 -0.20088394 -0.06654355 -0.3601601 0.10721379 0.10224434 0.504188 -0.12944199 -0.2269239 0.32881665 0.11856877 -0.120629564 -0.44507992 -0.02919264 -0.08114207 0.4258942 0.13392855 0.23082326 -0.07393217 0.46213698 -0.15371956 0.27200526 -0.3785098 0.12918153 -0.18132746 0.19075006 0.18514277 0.17168364 0.21592769 -0.00825972 -0.23544052 0.050097663 -0.1582968 0.16648719 -0.08774793
hsa-miR-138-5p -0.17534925 -0.21525985 0.34666818 0.1813949 0.034564164 0.1626762 -0.1668895 0.019830612 0.16148834 -0.16087295 -0.084704414 -0.1743333 -0.13699009 -0.10878025 0.226419 0.0512144 -0.06408887 -0.07884133 -0.063349366 0.016565345 0.015903799 0.27155396 0.05899692 -0.10643167 0.075663626 0.09230563 0.28600705 0.020601705 0.046847295 0.05780711 -0.20124531 0.39654225 -0.13568702 0.13795035 -0.19644572 0.059530895 -0.24867108 0.10861368 0.2554762 -0.013918074 0.05391865 -0.1938295 -0.12461571 -0.011261617 0.047173157 0.20359895 -0.006374226 0.14667635 0.34037974 0.08289078 -0.07759762 0.0057661072 0.029084455 0.18510967 0.10712796 0.21641548 0.26448625 0.11778891 0.19568016 -0.08949223 -0.13486904 0.08963516 -0.15513252 -0.05241708
hsa-miR-202-5p 0.8516839 -0.2506003 0.046294633 0.72266704 0.14844307 0.26992646 -0.024734171 -0.34989148 0.5211471 -0.40368453 -0.30347845 -0.4168424 0.16163217 -0.84139407 -0.13014928 -0.10713364 0.20480001 0.06849839 -0.11302382 0.68259287 0.0732986 0.24422723 0.1811326 -0.21343483 0.30595687 -0.011346815 -0.5387252 -0.12574384 0.1522293 -0.033944402 -0.43876523 0.54799247 0.121379875 0.34395367 -0.038306974 0.14310734 0.11931783 -0.26813796 0.15025955 0.042205013 0.27719593 0.17998205 0.581132 0.039432958 -0.27572435 -0.30293003 -0.30625936 0.44849113 0.32682776 0.18952908 -0.044768356 0.17582388 0.094616674 -0.1460872 -0.13644795 0.103507176 0.21137631 0.3106353 0.25464147 -0.17254134 -0.15917085 0.070833296 -0.8297897 -0.062842995
hsa-miR-92b-3p -0.21439515 -0.33390403 0.10356347 0.42762655 0.1730059 -0.250654 0.26672092 0.063197 -0.34697026 -0.21111466 0.012124762 -0.31691697 -0.05765805 -0.1314553 0.46364078 -0.078269795 0.4550685 -0.34385407 0.13778207 -0.32603177 0.3223724 0.32734215 -0.19516076 -0.349543 -0.22679117 -0.03491835 -0.06303662 0.20153119 0.047640413 -0.0070770904 -0.22100571 0.2056534 0.1886256 0.17574018 0.09947608 0.113264136 0.16995826 0.06783507 0.3693655 0.08318632 -0.39245653 -0.20731342 0.10721287 0.5213606 -0.0069195908 -0.36408174 0.09758463 -0.09357802 0.042268764 0.29379886 -0.27545848 -0.37267372 0.6470492 0.43013972 -0.3151286 -0.0856196 0.5056205 0.20715609 0.162229 0.07677777 0.41150606 0.015858144 -0.25792757 -0.17442393
hsa-miR-128-3p 0.17730995 0.031445596 0.15642205 -0.07968956 0.10159071 -0.22639726 -0.10175488 -0.18480413 0.012877803 -0.17517817 -0.009747158 -0.24933255 -0.11329063 0.1088156 0.087190114 -0.13608003 0.23936805 0.07529407 -0.1078819 0.09219074 -0.091190554 -0.081963144 0.16896851 -0.0426899 0.03249542 -0.056773573 -0.035163682 0.50826025 0.32568693 0.1708752 -0.051975515 0.09055093 -0.16162898 0.17543152 0.57884467 -0.17917338 -0.20112197 0.4226618 0.056922205 0.033164818 -0.11993557 -0.25020984 -0.11513817 -0.43464446 0.10689318 0.019965522 0.3805019 -0.18858074 0.1745898 -0.077151656 0.3037287 -0.012094253 0.06800978 -0.09781364 -0.116669975 -0.0007284539 0.43260425 0.1787804 -0.12980987 -0.32210928 0.15845574 0.17011319 0.07532617 0.33398795
hsa-miR-222-3p 0.016295305 -0.15124132 0.04583889 0.15595901 -0.05146918 0.029911341 -0.043864515 0.36815566 -0.24976048 -0.073305495 -0.18225911 -0.2839818 -0.1707504 -0.018147474 0.10754356 0.051392272 0.17667878 -0.028971156 -0.40809903 -0.024505164 0.10082838 0.3023713 -0.07735915 0.10150655 0.15352608 -0.370369 0.30682513 -0.08451443 0.015722308 -0.23751283 0.06859083 -0.053573668 -0.042531513 -0.07483863 -0.043361314 0.39175847 -0.08277813 -0.35482022 0.2230256 0.3727957 0.1682315 -0.36972255 0.24689122 0.046257883 -0.51548946 -0.08507112 0.03913425 -0.0070555443 0.18962194 0.08020905 -0.353479 0.2119067 0.33124292 -0.21251987 -0.10392492 0.32511103 0.04371328 -0.06448631 -0.04836728 -0.32045335 0.25880033 0.10311921 0.09811463 0.14112984
5790 0.61229086 -0.4499913 -0.27426827 0.08609986 0.507396 -0.059662472 -0.14710312 -0.026105622 0.31478393 0.4658898 0.59498847 -0.2952535 -0.5713099 0.3871646 0.049576595 -0.06103947 -0.06860082 -0.621514 0.17272085 0.41575173 -0.34025458 0.016825363 0.07562811 -0.13412887 0.1580363 -0.29341248 0.25304624 -0.1035617 -0.22326083 -0.22589163 -0.2283643 0.41930237 -0.6288134 0.17495361 0.27365172 0.54951084 -0.61635137 0.18703398 -0.30078968 -0.01840971 0.18379077 -0.26418865 0.7006267 -0.14000647 0.46110305 -0.5533772 -0.09663165 -0.33813336 0.5756844 0.14020175 -0.03445286 0.1325207 0.07217641 0.67825735 -0.1569843 0.0848938 0.0282002 -0.21221536 0.66191715 0.10273007 0.3668099 0.22216125 -0.27867565 0.08909204
10836 0.16987136 -0.34986672 0.040045246 -0.15205956 -0.8581817 0.30137146 -0.13326117 -0.17167428 -0.053660404 -0.18533029 0.26408088 -0.16727743 0.0014210365 -0.6506143 -0.03394231 0.562949 -0.055804335 0.08224087 0.30287588 -0.03109988 -0.22483395 0.1752843 0.17422596 0.23431733 0.3485605 0.16312854 0.1580447 -0.09849356 -0.4466654 -0.49240002 0.07169858 -0.32113072 -0.0897575 0.3511701 -0.14436848 0.1579595 -0.125183 -0.111131705 0.36860865 0.06695084 -0.4787341 0.11360607 -0.5024502 -0.45502454 0.35515216 0.00897084 1.0357372 -0.23318651 0.096155286 0.14937273 -0.3225612 0.4485314 0.83196145 0.39256522 -0.2636206 0.11249079 -0.21271084 0.18979952 0.36477467 0.0781473 -0.34712425 0.31308895 -0.15807433 0.3045154
hsa-miR-150-5p -0.08360369 -0.29035404 -0.058649775 0.10574883 -0.44512767 0.42063156 0.016494796 0.12291213 0.067970425 -0.2806631 0.14543065 -0.144581 -0.3571113 -0.29807317 0.03609538 0.63103247 0.039897144 -0.1590937 0.1887716 0.1712667 -0.26842386 -0.2513487 -0.20035821 0.16028018 0.39029175 0.25466716 0.114056036 0.09850204 -0.17933549 -0.13872056 0.24521358 -0.2990505 -0.052725215 0.1559251 -0.12434799 0.078634545 -0.58294916 -0.20937277 0.2142157 -0.0034652734 -0.17636777 -0.01820806 -0.11746218 -0.20403679 0.28571984 -0.08307584 0.58653384 -0.13761412 -0.020455424 -0.028093837 0.43012664 0.21552786 0.683883 0.20632535 -0.060874205 0.22309001 -0.2449188 0.46389344 0.2123475 -0.4091656 0.07867087 -0.054350935 0.039029367 0.3914161
hsa-miR-335-5p 0.24320053 -0.11865535 -0.047713898 0.4767547 0.31133553 -0.1970725 -0.35218507 -0.007519861 0.08049304 -0.35113478 0.0067703244 -0.05166088 -0.4029628 -0.2383747 0.060501684 0.28774714 -0.051399533 -0.11526968 -0.05791859 0.06860242 -0.20722063 0.18597773 -0.081990205 -0.0123609975 -0.1910291 0.013349373 0.28157762 0.7645786 0.1302174 0.029593794 -0.18104585 -0.06669416 -0.14659935 -0.39075315 0.18402494 0.09509483 0.24289411 -0.19555497 0.17949204 -0.111826465 0.048062265 -0.10700641 -0.044642333 -0.07000508 0.23655511 0.017670603 -0.06691579 -0.009421581 0.21603645 -0.12256888 0.22614804 0.1871524 0.28739247 -0.054843977 -0.057955235 0.1027614 -0.05655553 -0.05455857 0.12588635 0.022223437 0.23488249 0.065289 -0.3000726 0.086824656
448013 0.5325297 -0.38147447 -0.45295867 -0.12228105 0.24924213 -0.40006635 0.11747771 0.5158257 -0.32669568 0.20453575 -0.35395807 -0.007910969 -0.10317326 0.036605667 0.5371804 0.058032565 0.06696695 -0.33839974 0.06744509 0.14156531 0.83450156 0.30645818 0.21169674 0.13569374 -0.27525055 0.18040642 0.37031916 0.1997213 0.11724574 0.24296364 -0.006133664 -0.16431184 -0.44222882 0.4648255 0.020597914 0.022396896 0.034778204 -0.44391066 0.28384283 0.54014456 -0.32774636 -0.38295537 0.2955421 -0.3687006 0.11602545 0.1606424 -0.4244923 -0.031086061 0.16245951 -0.21589188 0.35271132 0.06802298 -0.10477066 -0.19127159 -0.39613652 0.25366682 0.15474722 0.20595041 0.02707209 -0.14506488 -0.35119852 -0.13933755 -0.56551373 -0.39884293
hsa-miR-200c-3p 0.27058116 -0.27078095 -0.15210521 -0.09858314 0.06496827 -0.12944032 0.13031353 0.29330745 -0.17265089 -0.12424572 -0.1688878 -0.09489607 -0.11936218 0.021834206 0.36841434 0.12599291 -0.104270056 -0.1955649 0.025669519 0.096032545 0.5240531 0.37709635 0.13297836 0.16718866 -0.25049648 0.058953427 0.22187836 0.19893232 0.025308143 0.052689485 -0.04049357 0.061252777 -0.34681916 0.22219609 0.11137363 -0.109739475 0.06932591 -0.39422327 0.17560992 0.34313983 -0.24675955 -0.30962738 0.20921893 -0.17126134 0.034695473 0.09937886 -0.28498742 -0.037446607 0.111721836 -0.2125125 0.23341262 0.14841892 -0.089891106 -0.07004397 -0.16767177 0.11948126 0.0121174045 0.25345898 0.062444746 -0.18027337 -0.12892884 -0.1937155 -0.32038826 -0.24933912
122634 0.097420976 -0.1597188 -0.0049494747 0.26576376 -0.50758994 0.36232886 0.39994952 -0.6602409 -0.0106547745 -0.34592342 0.26412344 -0.10426271 0.24145386 0.4517533 0.48853365 0.016065145 0.5617908 -0.31830204 -0.010914994 0.02655853 -0.10001993 0.0012049244 0.12552686 0.18028665 -0.11890608 -0.32793278 0.3891844 0.539426 0.16233228 -0.23693827 -0.040906634 -0.28028128 0.20146912 -0.0155442 -0.27007 -0.5277465 -0.2088111 0.28932962 0.43441954 0.6795999 0.22065595 -0.06266858 -0.2886634 -0.6698855 0.09822052 -0.42442378 -0.25918034 0.46201116 -0.022650493 0.5148339 0.4207583 0.2590655 0.9634939 0.32180777 -0.21841958 0.08032667 0.07414776 0.10602056 0.17565393 -0.35317355 0.10371837 -0.11553548 0.013030222 -0.22472629
hsa-miR-451a 0.021508856 -0.38152802 -0.06120574 0.09480308 -0.019098518 -0.1285892 -0.12602222 0.31127396 0.15331212 0.26058275 0.012860225 -0.46599454 -0.17264844 0.0062442287 0.111243986 0.1922632 0.24031124 -0.04485387 -0.028490977 -0.32129645 0.08766195 0.12665077 0.43463835 -0.079522386 0.10939584 -0.29295993 0.29279843 0.11886211 0.48236275 -0.088020355 -0.04125354 -0.14709291 -0.25654992 -0.17721833 0.19519533 0.13327001 -0.43959495 0.036584236 -0.052529365 0.068199925 0.10649304 0.019078884 0.2763985 -0.2416084 0.10465273 -0.2433955 -0.29311234 0.062706664 0.2881541 -0.29903206 0.3008459 0.1476718 0.035667542 -0.0749471 0.20653476 -0.17894496 0.2253204 -0.38097122 0.47726384 -0.06838892 -0.21816137 -0.07120844 -0.17904413 0.25343144
5291 -0.04710095 -0.2844172 -0.13406208 -0.01949606 -0.06318258 -0.145952 0.07432717 0.095712505 -0.065053634 0.1704889 -0.18222903 -0.08897874 -0.009787237 -0.031211045 0.0016630009 0.41138032 0.25301728 0.15651682 -0.22953856 -0.18010345 -0.1370888 0.24634969 0.078419216 0.07650611 0.05216383 -0.084823035 -0.30597714 0.3529842 0.37748927 0.017991763 -0.23271069 -0.041617166 -0.25562128 0.09422927 -0.038808636 0.00542861 -0.041263413 -0.016651675 0.0009360422 -0.20027581 0.018469049 0.06776604 0.097449094 -0.15037814 0.20855731 0.23880775 0.30480802 0.19346686 0.112981655 -0.22303575 0.25330544 -0.07886021 0.2376769 0.147047 -0.13331753 0.25693816 0.0287205 0.12644058 0.1697518 -0.45147058 -0.021052347 0.094263025 -0.048231315 0.15114997
5073 -0.19747844 -0.3996475 -0.10482393 0.009593462 0.11755076 0.057500366 -0.20853184 0.5496379 0.18087915 -0.43396464 0.23050156 0.16119494 -0.040702716 0.2105985 0.22059567 -0.18043408 -0.88144404 -0.2781512 -0.2504026 -0.06006892 0.43927625 -0.1358535 0.57179755 -0.39999297 -0.20421925 -0.6677843 0.50175214 -0.17198524 0.0989265 -0.17737609 -0.5613136 0.30388665 -0.3130801 0.18167727 -0.15290548 0.27924812 0.7629209 0.9041696 0.03069102 -0.27603805 -0.09035889 -0.26201802 -0.14753784 -0.35242197 0.5776316 0.9729004 -0.026331404 0.086053886 0.40158752 -0.4134503 -0.009872011 0.27028707 0.58450294 0.22420219 -0.21673861 -0.1458409 0.105176665 -0.018888175 -0.0020821346 -0.14816207 0.2813916 0.18472216 -0.49052367 0.13815445
hsa-miR-365a-3p -0.1791427 -0.1236103 0.081619866 -0.15299244 -0.09982246 -0.01430058 0.108815916 0.23156227 0.108532995 -0.33629492 0.12922084 -0.07820747 0.10721225 0.046829276 0.20142926 0.042644575 -0.2590333 0.025138643 -0.39747652 -0.048690703 0.27429038 -0.12237102 0.15382992 -0.19605857 0.030603271 -0.31590396 0.10682919 0.16840085 0.09582989 0.033039093 -0.4083038 0.2151406 -0.41121635 0.11197496 -0.16320679 0.23251286 0.19692911 0.38144377 -0.041012213 -0.13556708 -0.049875192 -0.05323496 -0.11442754 -0.3301113 0.24999039 0.26193404 0.09960256 -0.0013179881 0.1899418 -0.3000033 -0.16342579 0.20622444 0.3298668 0.21917132 0.023839938 0.015224058 0.2145436 -0.10481908 0.09923521 -0.23720096 0.086862184 0.065299265 -0.19841002 0.13159809
hsa-miR-584-5p 0.26665783 -0.087087795 0.38576454 0.17593831 0.0806809 0.07778602 0.11953794 -0.0029949148 -0.19460072 -0.4137365 -0.18040755 -0.37064385 0.14387581 0.076191895 0.2093141 -0.039693274 0.1181559 0.081112355 -0.06986742 -0.3016057 -0.02604741 -0.12862305 0.27622324 -0.30341125 0.019889245 0.042096768 0.282087 0.18980952 -0.16290498 0.09977388 -0.018373687 -0.11973437 -0.32457113 -0.17092413 0.040896196 0.10724846 -0.045236703 0.0034555914 0.06686224 0.19780566 0.090562984 0.036546282 -0.11054748 -0.055393502 0.06551425 -0.3312608 0.28340766 -0.099448726 0.1484294 -0.045390908 0.14005195 0.013001419 -0.23741312 0.13540602 -0.08635907 0.40400726 0.09568162 0.16755745 -0.20572601 -0.012843799 0.29913467 0.2549675 -0.19993508 0.07576411
hsa-let-7i-5p -0.14250709 0.07733638 0.035579108 0.026200624 -0.005142586 -0.07127409 -0.048707645 0.24447277 -0.1395538 -0.1425947 0.09039845 -0.3180183 0.035148334 0.20607919 -0.041839402 -0.038170617 0.12922986 -0.06409441 -0.15049213 0.042664837 0.08999869 0.18311203 0.18361548 0.22241193 0.17810376 -0.0932686 0.06352934 0.22033279 0.07145488 -0.07007963 0.14255658 0.025390167 -0.29293716 0.022157937 0.25103796 0.10284498 -0.019746155 0.28265095 -0.021574106 -0.1285232 -0.029429398 -0.11498603 0.015361303 -0.09036855 0.15259326 0.021307265 0.13382158 0.06390879 0.110736385 -0.048334207 -0.12715338 0.12643531 0.3635822 0.03504048 0.050704397 0.04632726 0.0125111565 0.19476278 0.18304563 -0.19939233 -0.06338785 -0.08474489 -0.36930546 0.29426813
hsa-miR-497-5p 0.19214435 0.16843274 0.06605749 -0.016430045 -0.11977923 0.05674519 0.26667914 -0.16896453 -0.014999917 -0.054683078 0.014572096 0.23122199 -0.3090388 -0.16390496 0.41890937 -0.028797764 -0.08298114 -0.00028969822 -0.3379676 0.19853488 -0.023032242 0.25511545 0.440497 -0.10384279 -0.111314215 -0.15287657 -0.050297484 0.03974963 0.022590084 -0.015820427 -0.18495362 0.15928076 -0.124196 -0.17036004 0.21697748 0.110365614 -0.34306055 -0.01472888 -0.00963315 0.3177283 -0.24840987 -0.13051976 0.07402885 -0.24938905 0.0792066 -0.19360045 0.36612216 -0.17115067 0.26090106 -0.09246627 -0.24641076 -0.051160693 -0.20094632 0.08587017 0.006362451 0.502066 0.0755875 0.15919028 0.06480438 -0.01884898 0.28381762 0.15008222 -0.13098907 -0.058081187
969516 -0.013561674 -0.3322284 -0.14319357 0.44027767 -0.21583292 -0.6140788 -0.36969438 -0.26908624 -0.18023382 -0.14778873 -0.3243047 -0.27588063 -0.021428544 -0.4087949 0.13250284 0.21861263 0.006971079 -0.24920084 -0.057130247 0.071752466 0.07940624 -0.035311185 0.5271175 0.02148224 -0.35039786 0.034630034 0.06699889 0.3258456 -0.043550376 0.32350674 -0.10827077 -0.055255875 -0.26149678 0.0021028458 -0.027356258 0.033426195 -0.22415128 0.09804957 -0.14460029 -0.15024236 -0.26594856 -0.28238153 0.1600423 -0.29313877 0.052187134 -0.13130546 -0.25640702 0.10802406 -0.080848694 0.034214295 0.043373406 -0.036822286 -0.11106992 -0.19363853 0.09746347 0.18218808 -0.26759884 -0.08020313 0.5753415 -0.14003034 0.1652538 -0.25208035 0.07219932 -0.03431386
hsa-miR-206 -0.29435542 -0.08124941 0.106806576 -0.06495803 0.22808827 0.42524046 0.120255485 0.05996106 0.09259206 -0.05548627 -0.0049675084 -0.53310865 0.15865992 -0.31578994 0.13857783 0.006684608 0.02748732 0.29872403 0.04979393 -0.092773594 -0.046661578 0.20736243 0.12329836 0.0046625556 -0.14821154 -0.16981848 0.19613464 -0.020328546 0.17460512 -0.28673682 -0.28280604 -0.15383814 -0.56783146 -0.32902494 0.32217577 -0.27425098 -0.23387186 -0.15866792 0.09702563 0.05940242 -0.19258052 -0.17465311 0.3782172 0.18311028 -0.20010099 0.067064784 0.001212655 0.020721603 0.04934743 0.025118774 0.08079582 0.27126983 0.01884546 0.062333997 -0.16808884 -0.23389655 -0.07050005 0.30356053 0.03610136 -0.098491766 0.21322748 -0.12681709 0.3314889 -0.10293827
24978538 0.46125486 0.48894742 -0.0020080963 0.26478174 0.24016215 0.12146439 0.3902694 -0.0762612 0.53227633 0.13178498 -0.15869312 -0.62893003 0.26659456 0.025574801 0.28397334 0.39336047 -0.20516545 -0.30613893 -0.7089229 0.024621967 -0.3794637 -0.37035602 0.70050085 -0.45493993 0.118595794 -0.06258227 0.23006631 0.4306134 0.33728284 -0.6554307 0.10018839 0.39801535 -0.2526674 0.07382088 -0.26402417 0.2749925 -0.66944224 -0.062402483 0.3000063 0.5360629 -0.52234614 -0.39493597 0.033036623 0.19250524 -0.018063365 0.4007968 0.113731034 0.072970465 0.44661003 0.10150417 -0.16050375 -0.35882017 0.44891962 0.012145317 0.24214183 0.04510083 -0.11956763 -0.18880758 -0.08422813 0.072788045 -0.5128921 -0.45947272 0.036113314 0.3420471
hsa-miR-1233-3p 0.21961033 0.45904028 -0.15367563 0.06294009 0.09612864 0.069113806 0.13628288 0.046433266 0.38502416 -0.036160402 -0.358557 -0.58268577 0.21336536 -0.06653383 0.0599985 0.23434359 -0.20385344 -0.061951675 -0.5776529 0.11676147 -0.2718355 -0.42489755 0.61254835 -0.24119379 -0.00620134 0.014082007 -0.06594854 0.33077115 0.108752005 -0.47840613 -0.068154365 0.43936124 -0.029741095 -0.090609245 -0.22055312 0.1270047 -0.52573043 -0.25938055 0.18006243 0.3900911 -0.37714514 -0.40996107 0.19190463 0.28907695 0.03660452 0.27174577 0.05896039 0.0042848336 0.5147486 0.077160515 0.06309903 -0.16988991 0.47143534 0.0071547823 -0.14968985 0.03118927 0.17290595 -0.030356932 0.08482369 0.24774241 -0.11553563 -0.27141145 -0.018331913 0.2960574
